weights['RES8_NARROW'] = {
    "bn1.num_batches_tracked": 10412,
    "bn1.running_mean": [
        1.3127665519714355,
        5.605193857299268e-45,
        1.377474308013916,
        5.605193857299268e-45,
        7.236150741577148,
        5.605193857299268e-45,
        2.2982546073562153e-35,
        9.923069953918457,
        1.4243258237838745,
        1.8774712085723877,
        0.23531915247440338,
        5.605193857299268e-45,
        5.605193857299268e-45,
        5.605193857299268e-45,
        2.8717269897460938,
        3.8496756553649902,
        5.1484551429748535,
        0.2820250391960144,
        0.030544497072696686
    ],
    "bn1.running_var": [
        39.64137268066406,
        5.605193857299268e-45,
        41.72128677368164,
        5.605193857299268e-45,
        211.19873046875,
        5.605193857299268e-45,
        1.8759432309354607e-36,
        160.65835571289062,
        48.758941650390625,
        67.90216827392578,
        6.810190200805664,
        5.605193857299268e-45,
        5.605193857299268e-45,
        5.605193857299268e-45,
        97.45806884765625,
        111.84947204589844,
        203.18128967285156,
        9.832337379455566,
        0.44032326340675354
    ],
    "bn2.num_batches_tracked": 10412,
    "bn2.running_mean": [
        2.82625675201416,
        1.4106228351593018,
        3.0850343704223633,
        0.9572511315345764,
        4.122150897979736,
        3.140895128250122,
        2.7333860397338867,
        2.8070874214172363,
        3.430907726287842,
        3.772305965423584,
        2.8350329399108887,
        3.2893900871276855,
        3.2436940670013428,
        3.6559948921203613,
        3.469398260116577,
        1.6160387992858887,
        2.6141457557678223,
        1.8307675123214722,
        2.213404417037964
    ],
    "bn2.running_var": [
        3.5074808597564697,
        4.944817543029785,
        3.2798550128936768,
        2.5144073963165283,
        5.419890880584717,
        2.5939228534698486,
        2.2076170444488525,
        2.639249086380005,
        2.964982032775879,
        3.2631900310516357,
        4.57150936126709,
        3.228281259536743,
        9.514296531677246,
        4.942520618438721,
        78.87187957763672,
        3.7374632358551025,
        11.016409873962402,
        3.2313971519470215,
        10.145302772521973
    ],
    "bn3.num_batches_tracked": 10412,
    "bn3.running_mean": [
        1.1141897439956665,
        0.9115818738937378,
        0.9603519439697266,
        0.7921777963638306,
        1.4724969863891602,
        0.833587646484375,
        0.6693093180656433,
        0.7133240103721619,
        1.4103500843048096,
        0.8362564444541931,
        0.7720935940742493,
        0.674471914768219,
        0.8050081729888916,
        1.4988563060760498,
        1.171257495880127,
        0.8037604689598083,
        1.1091077327728271,
        1.0022670030593872,
        1.5639528036117554
    ],
    "bn3.running_var": [
        6.418399333953857,
        3.0317749977111816,
        3.377288579940796,
        4.767528057098389,
        6.307259559631348,
        3.7787179946899414,
        3.4270312786102295,
        3.7359189987182617,
        3.4650344848632812,
        4.597473621368408,
        5.567195415496826,
        3.761204242706299,
        5.684244632720947,
        5.813077926635742,
        3.18827748298645,
        5.165225982666016,
        9.646618843078613,
        8.338744163513184,
        3.768200397491455
    ],
    "bn4.num_batches_tracked": 10412,
    "bn4.running_mean": [
        4.1293816566467285,
        4.4818949699401855,
        4.349716663360596,
        2.661424398422241,
        5.640675067901611,
        4.667281627655029,
        4.958298683166504,
        4.226873397827148,
        4.483263969421387,
        5.330999851226807,
        4.931551933288574,
        4.566047668457031,
        4.921280384063721,
        6.866853713989258,
        4.4292378425598145,
        4.5037522315979,
        3.503343105316162,
        3.4616169929504395,
        3.2266790866851807
    ],
    "bn4.running_var": [
        9.190300941467285,
        6.85908317565918,
        8.553524017333984,
        3.8064517974853516,
        14.159611701965332,
        9.014166831970215,
        7.256371974945068,
        10.042316436767578,
        6.499406814575195,
        6.699737548828125,
        7.327675819396973,
        7.168807029724121,
        9.554542541503906,
        10.66334056854248,
        74.94193267822266,
        5.463670253753662,
        11.239030838012695,
        11.16018009185791,
        11.205916404724121
    ],
    "bn5.num_batches_tracked": 10412,
    "bn5.running_mean": [
        1.1892564296722412,
        1.068920612335205,
        0.593147873878479,
        0.7790337800979614,
        0.46336859464645386,
        0.7608737349510193,
        1.0760512351989746,
        0.4734044671058655,
        0.4631061255931854,
        0.5901379585266113,
        0.5861856937408447,
        0.2722129821777344,
        0.48664453625679016,
        0.8988454937934875,
        0.8500696420669556,
        1.0646424293518066,
        1.737047553062439,
        0.7510125637054443,
        1.528975009918213
    ],
    "bn5.running_var": [
        5.461287498474121,
        1.889024257659912,
        3.467757225036621,
        3.5697484016418457,
        1.3786693811416626,
        4.570241451263428,
        1.76506507396698,
        1.46365487575531,
        1.3862528800964355,
        1.8731441497802734,
        1.5881257057189941,
        0.8567061424255371,
        2.141282320022583,
        3.6811599731445312,
        2.7340424060821533,
        1.7081639766693115,
        2.129795551300049,
        3.56571888923645,
        6.853241920471191
    ],
    "bn6.num_batches_tracked": 10412,
    "bn6.running_mean": [
        6.13137674331665,
        6.622093200683594,
        6.355982780456543,
        4.190444469451904,
        8.457967758178711,
        6.576055526733398,
        7.054801940917969,
        6.1103835105896,
        6.591405868530273,
        7.284215450286865,
        7.2822465896606445,
        7.1938982009887695,
        6.955365180969238,
        9.736932754516602,
        6.093451023101807,
        6.405043601989746,
        5.539057731628418,
        6.168717384338379,
        5.831945896148682
    ],
    "bn6.running_var": [
        49.50260543823242,
        26.72427749633789,
        29.520244598388672,
        28.945940017700195,
        33.28998947143555,
        40.810768127441406,
        28.107385635375977,
        44.452491760253906,
        32.51238250732422,
        31.61052703857422,
        13.74203109741211,
        11.89012336730957,
        36.6216926574707,
        29.052417755126953,
        79.21742248535156,
        18.70904541015625,
        37.60407257080078,
        20.03455352783203,
        68.86054229736328
    ],
    "conv0.weight": [
        [
            [
                [
                    2.163922071456909,
                    -0.291228324174881,
                    -1.6659826040267944
                ],
                [
                    0.23397217690944672,
                    0.8704157471656799,
                    0.005947432480752468
                ],
                [
                    -1.9649776220321655,
                    1.2956037521362305,
                    1.2957514524459839
                ]
            ]
        ],
        [
            [
                [
                    0.24292102456092834,
                    0.36640065908432007,
                    -0.19449760019779205
                ],
                [
                    -1.5959986448287964,
                    -1.4616649150848389,
                    -1.0468026399612427
                ],
                [
                    1.47411048412323,
                    1.2915916442871094,
                    1.3245285749435425
                ]
            ]
        ],
        [
            [
                [
                    -0.7240740656852722,
                    1.8424196243286133,
                    -0.14225445687770844
                ],
                [
                    0.5944390892982483,
                    0.3435596227645874,
                    -0.08151248842477798
                ],
                [
                    1.0532491207122803,
                    -1.6212495565414429,
                    -0.3012721538543701
                ]
            ]
        ],
        [
            [
                [
                    -0.9869838356971741,
                    0.7593769431114197,
                    0.06682085990905762
                ],
                [
                    0.05360322445631027,
                    0.33242806792259216,
                    -0.2829601466655731
                ],
                [
                    1.2450393438339233,
                    -0.876964807510376,
                    -0.02851584181189537
                ]
            ]
        ],
        [
            [
                [
                    1.4526680707931519,
                    1.317155122756958,
                    1.3570189476013184
                ],
                [
                    0.8348628878593445,
                    0.8540740609169006,
                    0.5657060742378235
                ],
                [
                    -2.357492208480835,
                    -1.9892512559890747,
                    -1.0739185810089111
                ]
            ]
        ],
        [
            [
                [
                    -1.5884664058685303,
                    -0.25532349944114685,
                    0.3938487470149994
                ],
                [
                    0.00201425701379776,
                    0.3604879081249237,
                    0.7819274663925171
                ],
                [
                    1.638479471206665,
                    0.47913986444473267,
                    -0.10505393147468567
                ]
            ]
        ],
        [
            [
                [
                    1.2809767723083496,
                    -2.619115114212036,
                    0.42380648851394653
                ],
                [
                    0.32078224420547485,
                    -0.23383139073848724,
                    -0.9103395342826843
                ],
                [
                    -1.210398554801941,
                    2.8603010177612305,
                    -0.335657000541687
                ]
            ]
        ],
        [
            [
                [
                    -0.21802303194999695,
                    0.34490951895713806,
                    -1.1462571620941162
                ],
                [
                    0.027297930791974068,
                    0.13921333849430084,
                    0.2356463521718979
                ],
                [
                    1.1062642335891724,
                    -0.33515727519989014,
                    0.12516315281391144
                ]
            ]
        ],
        [
            [
                [
                    1.383309006690979,
                    1.5243076086044312,
                    2.02642560005188
                ],
                [
                    0.7581047415733337,
                    0.10499972105026245,
                    -0.49934104084968567
                ],
                [
                    -1.831360936164856,
                    -1.0791057348251343,
                    -2.370858669281006
                ]
            ]
        ],
        [
            [
                [
                    1.6880382299423218,
                    -1.5948777198791504,
                    -0.5092369914054871
                ],
                [
                    0.587628185749054,
                    0.09681866317987442,
                    -0.6476551294326782
                ],
                [
                    -1.0286357402801514,
                    2.17966890335083,
                    -0.7140489816665649
                ]
            ]
        ],
        [
            [
                [
                    -0.43460097908973694,
                    0.5883409380912781,
                    0.01419015508145094
                ],
                [
                    0.01496314536780119,
                    -0.36878034472465515,
                    -0.9025323390960693
                ],
                [
                    0.6235400438308716,
                    -0.05066812038421631,
                    -0.7875007390975952
                ]
            ]
        ],
        [
            [
                [
                    0.14406131207942963,
                    0.882559597492218,
                    -0.40534207224845886
                ],
                [
                    0.27166709303855896,
                    -0.29969167709350586,
                    -0.7569347620010376
                ],
                [
                    0.8350907564163208,
                    -0.3932371735572815,
                    -0.37759408354759216
                ]
            ]
        ],
        [
            [
                [
                    -0.08256135880947113,
                    0.32639819383621216,
                    0.3167848289012909
                ],
                [
                    0.5292200446128845,
                    -0.32205766439437866,
                    0.7627733945846558
                ],
                [
                    0.6015806198120117,
                    -0.34685519337654114,
                    0.10254403203725815
                ]
            ]
        ],
        [
            [
                [
                    -2.8496618270874023,
                    2.2736597061157227,
                    0.5735821723937988
                ],
                [
                    0.0882086530327797,
                    0.5779723525047302,
                    -0.8368251323699951
                ],
                [
                    2.8397085666656494,
                    -1.9498735666275024,
                    -0.8751513361930847
                ]
            ]
        ],
        [
            [
                [
                    -0.33038198947906494,
                    0.6481363773345947,
                    0.2570160925388336
                ],
                [
                    -0.586484432220459,
                    -0.3398553431034088,
                    0.6269984841346741
                ],
                [
                    -0.1299038976430893,
                    -0.7577605843544006,
                    0.5361928939819336
                ]
            ]
        ],
        [
            [
                [
                    -1.120827317237854,
                    -1.6970665454864502,
                    -1.9655152559280396
                ],
                [
                    0.21803562343120575,
                    0.7763208746910095,
                    1.0113105773925781
                ],
                [
                    1.0027581453323364,
                    1.046561598777771,
                    1.0274951457977295
                ]
            ]
        ],
        [
            [
                [
                    -0.4010307192802429,
                    0.8121882677078247,
                    0.6623018980026245
                ],
                [
                    -0.05741479620337486,
                    -0.7386711835861206,
                    -0.43153810501098633
                ],
                [
                    0.29274803400039673,
                    -0.6403637528419495,
                    -0.8999683260917664
                ]
            ]
        ],
        [
            [
                [
                    -0.051006920635700226,
                    1.4043458700180054,
                    -0.18569020926952362
                ],
                [
                    0.311201274394989,
                    -0.15863613784313202,
                    0.10564717650413513
                ],
                [
                    0.11766815930604935,
                    -1.1796281337738037,
                    0.08465585857629776
                ]
            ]
        ],
        [
            [
                [
                    -0.8943464159965515,
                    -0.032237593084573746,
                    0.058339834213256836
                ],
                [
                    -0.18782010674476624,
                    0.17119567096233368,
                    0.26855307817459106
                ],
                [
                    0.5384892821311951,
                    0.31464338302612305,
                    0.1519840806722641
                ]
            ]
        ]
    ],
    "conv1.weight": [
        [
            [
                [
                    -0.19069837033748627,
                    0.642760157585144,
                    -0.09383541345596313
                ],
                [
                    -0.23124492168426514,
                    0.3185519576072693,
                    0.1646864265203476
                ],
                [
                    -0.19640281796455383,
                    -0.09036701917648315,
                    -0.12111562490463257
                ]
            ],
            [
                [
                    -0.10024837404489517,
                    0.0531097836792469,
                    0.08611855655908585
                ],
                [
                    -0.10391911119222641,
                    0.21167431771755219,
                    0.11640730500221252
                ],
                [
                    -0.16201810538768768,
                    0.2604124844074249,
                    0.10554865002632141
                ]
            ],
            [
                [
                    -0.09366173297166824,
                    -0.46244075894355774,
                    -0.06276414543390274
                ],
                [
                    -0.17045840620994568,
                    -0.21125827729701996,
                    -0.1716133952140808
                ],
                [
                    -0.16670356690883636,
                    -0.17901334166526794,
                    -0.015559615567326546
                ]
            ],
            [
                [
                    -0.20680131018161774,
                    -0.17518799006938934,
                    -0.03880775719881058
                ],
                [
                    -0.11935314536094666,
                    -0.12381201237440109,
                    -0.12524162232875824
                ],
                [
                    -0.18953482806682587,
                    -0.04817209765315056,
                    -0.005135783925652504
                ]
            ],
            [
                [
                    -0.15960007905960083,
                    -0.14568684995174408,
                    0.08144679665565491
                ],
                [
                    -0.20145176351070404,
                    0.023419024422764778,
                    0.1614709049463272
                ],
                [
                    -0.21717527508735657,
                    0.13370302319526672,
                    0.27053284645080566
                ]
            ],
            [
                [
                    -0.21761281788349152,
                    -0.4828648865222931,
                    -0.020743148401379585
                ],
                [
                    -0.20477311313152313,
                    -0.09137262403964996,
                    -0.12057805806398392
                ],
                [
                    -0.13335122168064117,
                    0.11980587989091873,
                    -0.2797401249408722
                ]
            ],
            [
                [
                    -0.1689510941505432,
                    0.3302944004535675,
                    0.06223966181278229
                ],
                [
                    -0.25613144040107727,
                    -0.027644777670502663,
                    0.16767238080501556
                ],
                [
                    -0.134404256939888,
                    0.2757231891155243,
                    0.18897810578346252
                ]
            ],
            [
                [
                    -0.06516855210065842,
                    -0.13757693767547607,
                    0.019218189641833305
                ],
                [
                    -0.15085673332214355,
                    -0.016820598393678665,
                    0.019688066095113754
                ],
                [
                    -0.08680510520935059,
                    -0.024337301030755043,
                    -0.1166720762848854
                ]
            ],
            [
                [
                    -0.26617756485939026,
                    -0.0906866118311882,
                    -0.17327843606472015
                ],
                [
                    -0.18239279091358185,
                    -0.24983099102973938,
                    -0.11572518199682236
                ],
                [
                    -0.2535407245159149,
                    -0.13943132758140564,
                    0.06771381199359894
                ]
            ],
            [
                [
                    -0.27557408809661865,
                    0.2072795182466507,
                    -0.041488002985715866
                ],
                [
                    -0.3778870701789856,
                    0.08912363648414612,
                    0.16543926298618317
                ],
                [
                    -0.37450793385505676,
                    0.12513944506645203,
                    -0.1118968054652214
                ]
            ],
            [
                [
                    -0.17958350479602814,
                    0.44166064262390137,
                    -0.0052822488360106945
                ],
                [
                    -0.2080489993095398,
                    0.09350771456956863,
                    0.0090845488011837
                ],
                [
                    -0.1997363418340683,
                    -0.03640984743833542,
                    0.22240830957889557
                ]
            ],
            [
                [
                    -0.28686413168907166,
                    0.13843654096126556,
                    -0.027215152978897095
                ],
                [
                    -0.2729642689228058,
                    0.013890375383198261,
                    -0.008152943104505539
                ],
                [
                    -0.23567639291286469,
                    -0.21258869767189026,
                    0.07148270308971405
                ]
            ],
            [
                [
                    -0.10648740828037262,
                    -0.2976521849632263,
                    0.28266358375549316
                ],
                [
                    -0.174818217754364,
                    0.25187692046165466,
                    0.3664688169956207
                ],
                [
                    -0.05318164825439453,
                    0.06362500786781311,
                    0.24556446075439453
                ]
            ],
            [
                [
                    -0.30400121212005615,
                    0.10533381253480911,
                    0.0501461923122406
                ],
                [
                    -0.26165637373924255,
                    -0.09026823937892914,
                    -0.0047726999036967754
                ],
                [
                    -0.29251864552497864,
                    -0.1283789426088333,
                    0.29497718811035156
                ]
            ],
            [
                [
                    -0.3505559265613556,
                    -1.0920841693878174,
                    0.6595772504806519
                ],
                [
                    -0.3182588219642639,
                    0.26164326071739197,
                    0.0651787742972374
                ],
                [
                    -0.2954500913619995,
                    1.0583587884902954,
                    -0.37163811922073364
                ]
            ],
            [
                [
                    -0.11955488473176956,
                    0.07192466408014297,
                    -0.07571983337402344
                ],
                [
                    -0.14440889656543732,
                    -0.13582682609558105,
                    -0.05353798717260361
                ],
                [
                    -0.1480400413274765,
                    -0.08790566772222519,
                    2.435909118503332e-05
                ]
            ],
            [
                [
                    -0.38035741448402405,
                    -0.20200370252132416,
                    0.018788693472743034
                ],
                [
                    -0.4011411666870117,
                    0.150530606508255,
                    0.24721235036849976
                ],
                [
                    -0.402795672416687,
                    0.1453884243965149,
                    0.5964719653129578
                ]
            ],
            [
                [
                    -0.07570371776819229,
                    -0.05822798237204552,
                    -0.06830309331417084
                ],
                [
                    -0.10162336379289627,
                    0.06057281047105789,
                    -0.11634461581707001
                ],
                [
                    -0.16844066977500916,
                    -0.05797235295176506,
                    0.052871376276016235
                ]
            ],
            [
                [
                    -0.15419282019138336,
                    -0.5615983605384827,
                    0.3489355146884918
                ],
                [
                    -0.14231954514980316,
                    0.2111782282590866,
                    -0.06777235865592957
                ],
                [
                    -0.16581512987613678,
                    0.4270491600036621,
                    -0.43921539187431335
                ]
            ]
        ],
        [
            [
                [
                    -0.06271391361951828,
                    -0.032449472695589066,
                    -0.009782671928405762
                ],
                [
                    -0.06843985617160797,
                    -0.009978716261684895,
                    0.0286679919809103
                ],
                [
                    -0.16041959822177887,
                    -0.03812231123447418,
                    -0.044738586992025375
                ]
            ],
            [
                [
                    0.03766268119215965,
                    -0.018262334167957306,
                    0.02401922270655632
                ],
                [
                    -0.014689544215798378,
                    0.017736615613102913,
                    -0.03151754289865494
                ],
                [
                    0.012579740956425667,
                    -0.0745963305234909,
                    0.0041034589521586895
                ]
            ],
            [
                [
                    -0.13523273169994354,
                    -0.09068511426448822,
                    -0.032690469175577164
                ],
                [
                    -0.029794594272971153,
                    0.01755857653915882,
                    0.0843578353524208
                ],
                [
                    -0.03470025584101677,
                    -0.08446633070707321,
                    -0.057211536914110184
                ]
            ],
            [
                [
                    -0.16681595146656036,
                    -0.08868957310914993,
                    0.009148838929831982
                ],
                [
                    -0.23031342029571533,
                    -0.09522298723459244,
                    -0.11251182854175568
                ],
                [
                    -0.1856938898563385,
                    0.010865230113267899,
                    0.008285162039101124
                ]
            ],
            [
                [
                    0.039070580154657364,
                    0.0044087436981499195,
                    0.08189583569765091
                ],
                [
                    -0.03291039541363716,
                    0.0008087012101896107,
                    0.08082540333271027
                ],
                [
                    0.007002065423876047,
                    0.046236634254455566,
                    0.022542787715792656
                ]
            ],
            [
                [
                    -0.021318960934877396,
                    -0.06505846232175827,
                    0.09139882028102875
                ],
                [
                    -0.06236841157078743,
                    -0.08190929889678955,
                    -0.004746661055833101
                ],
                [
                    -0.1208505928516388,
                    -0.11435927450656891,
                    0.06594255566596985
                ]
            ],
            [
                [
                    -0.020825589075684547,
                    -0.032106880098581314,
                    -0.07370166480541229
                ],
                [
                    -0.03144364431500435,
                    -0.003605721751227975,
                    -0.032981857657432556
                ],
                [
                    -0.1081545278429985,
                    0.017096389085054398,
                    0.0063744341023266315
                ]
            ],
            [
                [
                    -0.11278457194566727,
                    0.010736959055066109,
                    0.07711327075958252
                ],
                [
                    -0.08098172396421432,
                    -0.020794600248336792,
                    -0.03469642251729965
                ],
                [
                    -0.06834425777196884,
                    -0.003541926620528102,
                    0.009931638836860657
                ]
            ],
            [
                [
                    -0.07905864715576172,
                    -0.08344969153404236,
                    -0.010731351561844349
                ],
                [
                    -0.04004485160112381,
                    -0.050597887486219406,
                    0.07928889244794846
                ],
                [
                    -0.026067610830068588,
                    -0.10209529101848602,
                    -0.005395174957811832
                ]
            ],
            [
                [
                    0.014682432636618614,
                    -0.05120231956243515,
                    -0.09483706951141357
                ],
                [
                    -0.029957681894302368,
                    -0.1376628428697586,
                    -0.07307653874158859
                ],
                [
                    0.00468796631321311,
                    -0.1443534940481186,
                    0.001872568391263485
                ]
            ],
            [
                [
                    0.057046424597501755,
                    -0.022216269746422768,
                    -0.059289515018463135
                ],
                [
                    -0.032643601298332214,
                    -0.027867188677191734,
                    -0.06338188052177429
                ],
                [
                    0.028306953608989716,
                    -0.10004594177007675,
                    -0.07391271740198135
                ]
            ],
            [
                [
                    -0.06448112428188324,
                    -0.05072644352912903,
                    0.016572851687669754
                ],
                [
                    -0.05897010117769241,
                    0.01401513535529375,
                    -0.06245146319270134
                ],
                [
                    0.0324569046497345,
                    -0.03737740218639374,
                    -0.09459066390991211
                ]
            ],
            [
                [
                    -0.12494373321533203,
                    -0.024005085229873657,
                    0.0791248083114624
                ],
                [
                    -0.1618194580078125,
                    -0.10547428578138351,
                    0.0566968135535717
                ],
                [
                    -0.1616283804178238,
                    -0.04192928597331047,
                    -0.07602974772453308
                ]
            ],
            [
                [
                    -0.10331301391124725,
                    -0.09022404253482819,
                    -0.04348359256982803
                ],
                [
                    -0.07267720252275467,
                    -0.13262665271759033,
                    0.003223101142793894
                ],
                [
                    -0.02661655656993389,
                    -0.04004114121198654,
                    -0.08299273997545242
                ]
            ],
            [
                [
                    -0.4574042558670044,
                    -0.09117307513952255,
                    -0.001644778880290687
                ],
                [
                    -0.3725285232067108,
                    -0.0023284011986106634,
                    -0.06157808378338814
                ],
                [
                    -0.342507928609848,
                    -0.17610210180282593,
                    -0.11288526654243469
                ]
            ],
            [
                [
                    0.01750735007226467,
                    -0.052345626056194305,
                    0.03503027930855751
                ],
                [
                    -0.07207334041595459,
                    -0.08486120402812958,
                    -0.06874925643205643
                ],
                [
                    0.015130016952753067,
                    -0.04906375706195831,
                    0.05646257847547531
                ]
            ],
            [
                [
                    -0.253054678440094,
                    0.01792686991393566,
                    -0.05910085514187813
                ],
                [
                    -0.3551047444343567,
                    -0.03060547076165676,
                    -0.04498136788606644
                ],
                [
                    -0.22644081711769104,
                    -0.10033152997493744,
                    0.008847027085721493
                ]
            ],
            [
                [
                    -0.016208147630095482,
                    -0.10815618932247162,
                    -0.05698538199067116
                ],
                [
                    0.055824220180511475,
                    0.03409351408481598,
                    -0.08853980898857117
                ],
                [
                    0.04895307123661041,
                    0.004129417240619659,
                    0.019540702924132347
                ]
            ],
            [
                [
                    -0.21021492779254913,
                    -0.06635584682226181,
                    0.013052401132881641
                ],
                [
                    -0.273150771856308,
                    -0.06468187272548676,
                    0.002489012898877263
                ],
                [
                    -0.279503732919693,
                    -0.014882645569741726,
                    -0.05013042688369751
                ]
            ]
        ],
        [
            [
                [
                    0.8614267706871033,
                    0.05329231172800064,
                    0.07234562188386917
                ],
                [
                    0.07599188387393951,
                    -0.24291396141052246,
                    0.24589990079402924
                ],
                [
                    -0.747301459312439,
                    -0.30296948552131653,
                    -0.027943532913923264
                ]
            ],
            [
                [
                    0.35958707332611084,
                    0.22853410243988037,
                    0.11639489233493805
                ],
                [
                    0.14169450104236603,
                    0.2577342689037323,
                    0.05589796230196953
                ],
                [
                    -0.27029550075531006,
                    0.014593071304261684,
                    0.06621581315994263
                ]
            ],
            [
                [
                    0.36213675141334534,
                    -0.17391785979270935,
                    -0.14725548028945923
                ],
                [
                    -0.20983918011188507,
                    -0.06640125066041946,
                    0.05290679633617401
                ],
                [
                    -0.5677167773246765,
                    0.035266511142253876,
                    -0.042270414531230927
                ]
            ],
            [
                [
                    0.2298453152179718,
                    -0.1538151204586029,
                    -0.12998543679714203
                ],
                [
                    -0.06542632728815079,
                    -0.11275241523981094,
                    0.017669811844825745
                ],
                [
                    -0.29942867159843445,
                    -0.04890111833810806,
                    -0.09601583331823349
                ]
            ],
            [
                [
                    0.78495854139328,
                    -0.1689128428697586,
                    -0.07194208353757858
                ],
                [
                    0.3168928921222687,
                    0.04774489626288414,
                    0.22388525307178497
                ],
                [
                    -0.43972548842430115,
                    -0.08302269876003265,
                    0.09451737254858017
                ]
            ],
            [
                [
                    0.5249642133712769,
                    0.04013380408287048,
                    -0.20345260202884674
                ],
                [
                    0.06850206106901169,
                    0.21905271708965302,
                    -0.015824226662516594
                ],
                [
                    -0.15060603618621826,
                    0.11761803179979324,
                    -0.21081027388572693
                ]
            ],
            [
                [
                    0.2520519196987152,
                    0.12401089072227478,
                    0.2122446894645691
                ],
                [
                    0.2852737605571747,
                    -0.11393328011035919,
                    0.07466191053390503
                ],
                [
                    -0.5131521224975586,
                    -0.1174202635884285,
                    0.011408439837396145
                ]
            ],
            [
                [
                    0.23277512192726135,
                    -0.06023627519607544,
                    -0.05793461576104164
                ],
                [
                    -0.180506631731987,
                    -0.2232683002948761,
                    -0.1560830920934677
                ],
                [
                    -0.8518295884132385,
                    -0.019873378798365593,
                    -0.2042253315448761
                ]
            ],
            [
                [
                    0.18879956007003784,
                    -0.2826656699180603,
                    -0.0981970801949501
                ],
                [
                    -0.008473320864140987,
                    0.03516992926597595,
                    0.1385711133480072
                ],
                [
                    -0.370657354593277,
                    0.058354709297418594,
                    0.16930878162384033
                ]
            ],
            [
                [
                    0.49637195467948914,
                    0.17356722056865692,
                    -0.17833881080150604
                ],
                [
                    0.4490302503108978,
                    -0.2989393174648285,
                    -0.051666077226400375
                ],
                [
                    -0.7038425207138062,
                    -0.021112626418471336,
                    -0.3174392879009247
                ]
            ],
            [
                [
                    0.11902718991041183,
                    -0.14443732798099518,
                    -0.09960836917161942
                ],
                [
                    -0.29114678502082825,
                    -0.2688189744949341,
                    -0.1269114464521408
                ],
                [
                    -0.49636852741241455,
                    0.13238286972045898,
                    -0.08188441395759583
                ]
            ],
            [
                [
                    0.48544082045555115,
                    -0.14391739666461945,
                    -0.32108429074287415
                ],
                [
                    -0.21676205098628998,
                    -0.3622150719165802,
                    -0.2759474217891693
                ],
                [
                    -0.7973557114601135,
                    0.11322721838951111,
                    -0.27838414907455444
                ]
            ],
            [
                [
                    0.36914151906967163,
                    -0.28811129927635193,
                    0.0346258319914341
                ],
                [
                    0.44758284091949463,
                    -0.4101038873195648,
                    0.08332223445177078
                ],
                [
                    -0.7334033250808716,
                    -0.5427721738815308,
                    -0.17138272523880005
                ]
            ],
            [
                [
                    -0.31873494386672974,
                    -0.39283281564712524,
                    -0.13340650498867035
                ],
                [
                    -0.5028443336486816,
                    -0.3379274010658264,
                    -0.1504274159669876
                ],
                [
                    -0.9430727958679199,
                    -0.2680669128894806,
                    -0.3216671645641327
                ]
            ],
            [
                [
                    -0.09646991640329361,
                    0.482697069644928,
                    -0.6731283068656921
                ],
                [
                    0.7677607536315918,
                    0.07546983659267426,
                    -0.6686543822288513
                ],
                [
                    -0.17207641899585724,
                    -0.2908177673816681,
                    -0.2714209258556366
                ]
            ],
            [
                [
                    0.18455475568771362,
                    0.2534695267677307,
                    0.2380502074956894
                ],
                [
                    0.09042365849018097,
                    0.29018187522888184,
                    0.02044123224914074
                ],
                [
                    -0.44157373905181885,
                    -0.15590359270572662,
                    -0.10582271218299866
                ]
            ],
            [
                [
                    -0.5142412185668945,
                    0.1347419023513794,
                    0.12258386611938477
                ],
                [
                    0.6605849266052246,
                    -0.1357724517583847,
                    0.04917161911725998
                ],
                [
                    0.384609580039978,
                    0.0004957104101777077,
                    0.18791213631629944
                ]
            ],
            [
                [
                    0.24616225063800812,
                    -0.01924719847738743,
                    -0.1098269447684288
                ],
                [
                    0.15629790723323822,
                    -0.12602387368679047,
                    -0.0033539028372615576
                ],
                [
                    -0.22618801891803741,
                    -0.01987086795270443,
                    0.033673252910375595
                ]
            ],
            [
                [
                    -0.03834963217377663,
                    0.3645302951335907,
                    -0.5202052593231201
                ],
                [
                    0.3680853545665741,
                    0.1448478102684021,
                    -0.4312871992588043
                ],
                [
                    -0.2699582874774933,
                    -0.15998362004756927,
                    -0.3235134184360504
                ]
            ]
        ],
        [
            [
                [
                    0.00608703913167119,
                    -0.03236382082104683,
                    -0.027445202693343163
                ],
                [
                    -0.09260628372430801,
                    -0.046120502054691315,
                    -0.004791616462171078
                ],
                [
                    -0.0061892978847026825,
                    -0.1034439280629158,
                    0.01846488006412983
                ]
            ],
            [
                [
                    0.018305931240320206,
                    -0.05191560462117195,
                    -0.09645713865756989
                ],
                [
                    -0.00531349889934063,
                    -0.020197095349431038,
                    -0.01562265120446682
                ],
                [
                    -0.05695416405797005,
                    0.007200735155493021,
                    -0.007729861419647932
                ]
            ],
            [
                [
                    -0.07571891695261002,
                    -0.015893269330263138,
                    -0.021556980907917023
                ],
                [
                    -0.015979748219251633,
                    -0.025933362543582916,
                    0.06076711416244507
                ],
                [
                    -0.03921688720583916,
                    0.04523133486509323,
                    -0.03572786971926689
                ]
            ],
            [
                [
                    -0.08976475149393082,
                    -0.14852586388587952,
                    -0.1215890496969223
                ],
                [
                    0.0035151797346770763,
                    -0.048741284757852554,
                    -0.04994312301278114
                ],
                [
                    -0.06347092241048813,
                    0.023133017122745514,
                    0.025978950783610344
                ]
            ],
            [
                [
                    0.04113003611564636,
                    -0.076718270778656,
                    -0.03406507521867752
                ],
                [
                    -0.06384824961423874,
                    -0.08607146888971329,
                    -0.019838763400912285
                ],
                [
                    0.04702671989798546,
                    -0.11196377873420715,
                    -0.00993732362985611
                ]
            ],
            [
                [
                    -0.05581993982195854,
                    -0.076126828789711,
                    0.08978264778852463
                ],
                [
                    -0.03205087408423424,
                    -0.07847638428211212,
                    -0.05734468623995781
                ],
                [
                    0.04975597932934761,
                    -0.08114445209503174,
                    -0.0808999314904213
                ]
            ],
            [
                [
                    -0.01695684716105461,
                    -0.1469084620475769,
                    -0.09138571470975876
                ],
                [
                    -0.03870977461338043,
                    -0.018571387976408005,
                    -0.04761785641312599
                ],
                [
                    -0.016099512577056885,
                    -0.026832425966858864,
                    0.022398317232728004
                ]
            ],
            [
                [
                    -0.051226381212472916,
                    -0.08243139833211899,
                    -0.022440209984779358
                ],
                [
                    -0.07179571688175201,
                    -0.04658874124288559,
                    0.03141079097986221
                ],
                [
                    0.05060559883713722,
                    0.004966021981090307,
                    -0.02844804897904396
                ]
            ],
            [
                [
                    -0.055122487246990204,
                    0.03939006105065346,
                    -0.05050153657793999
                ],
                [
                    -0.07422168552875519,
                    -0.048250630497932434,
                    0.01955094188451767
                ],
                [
                    -0.0864260345697403,
                    0.0017821986693888903,
                    -0.016293132677674294
                ]
            ],
            [
                [
                    -0.056260090321302414,
                    -0.1649741679430008,
                    0.05501995235681534
                ],
                [
                    -0.06625229120254517,
                    -0.130926713347435,
                    -0.037631794810295105
                ],
                [
                    -0.07634656131267548,
                    0.03699440881609917,
                    -0.06049584224820137
                ]
            ],
            [
                [
                    0.019031688570976257,
                    -0.1291632205247879,
                    0.027525242418050766
                ],
                [
                    -0.0716990977525711,
                    0.03433461859822273,
                    -0.11281926929950714
                ],
                [
                    -0.09493069350719452,
                    -0.005447865463793278,
                    -0.023306071758270264
                ]
            ],
            [
                [
                    -0.04569050297141075,
                    -0.14114788174629211,
                    -0.06956133246421814
                ],
                [
                    -0.08264171332120895,
                    -0.14725367724895477,
                    -0.05294090881943703
                ],
                [
                    -0.059894904494285583,
                    -0.023683615028858185,
                    -0.04231351613998413
                ]
            ],
            [
                [
                    0.021455291658639908,
                    -0.138328418135643,
                    -0.02541334740817547
                ],
                [
                    -0.08577925711870193,
                    -0.15547238290309906,
                    -0.049821365624666214
                ],
                [
                    -0.07327622920274734,
                    -0.11898666620254517,
                    0.03205578401684761
                ]
            ],
            [
                [
                    -0.0692504271864891,
                    -0.02745659463107586,
                    -0.10820262134075165
                ],
                [
                    -0.04350214824080467,
                    0.01882082223892212,
                    0.007546808570623398
                ],
                [
                    -0.09286749362945557,
                    -0.024514324963092804,
                    -0.058064110577106476
                ]
            ],
            [
                [
                    -0.1327323317527771,
                    -0.15334349870681763,
                    -0.05838972330093384
                ],
                [
                    -0.164653018116951,
                    -0.1298632174730301,
                    -0.0413346104323864
                ],
                [
                    -0.1603899896144867,
                    -0.12842531502246857,
                    -0.06003926321864128
                ]
            ],
            [
                [
                    0.01683649607002735,
                    0.0042145331390202045,
                    -0.018928159028291702
                ],
                [
                    0.026353895664215088,
                    -0.05584121495485306,
                    -0.021939817816019058
                ],
                [
                    -0.021884365007281303,
                    0.002789844758808613,
                    -0.0502643883228302
                ]
            ],
            [
                [
                    -0.08908195048570633,
                    -0.17068278789520264,
                    -0.03524433448910713
                ],
                [
                    -0.1430739015340805,
                    -0.2600119411945343,
                    -0.09844651073217392
                ],
                [
                    -0.21316646039485931,
                    -0.36070817708969116,
                    -0.030601436272263527
                ]
            ],
            [
                [
                    -0.06288263201713562,
                    -0.06340664625167847,
                    -0.002623188542202115
                ],
                [
                    -0.05122308060526848,
                    -0.023075871169567108,
                    -0.01443288754671812
                ],
                [
                    -0.014872982166707516,
                    -0.04961487278342247,
                    -0.03467543423175812
                ]
            ],
            [
                [
                    -0.04291696846485138,
                    -0.078619085252285,
                    -0.04671815037727356
                ],
                [
                    -0.07037125527858734,
                    -0.1441892832517624,
                    0.0009397788671776652
                ],
                [
                    -0.12767361104488373,
                    -0.20592649281024933,
                    -0.00974222831428051
                ]
            ]
        ],
        [
            [
                [
                    0.6316343545913696,
                    -0.37805357575416565,
                    0.2587428092956543
                ],
                [
                    0.08941550552845001,
                    0.12867191433906555,
                    0.29878169298171997
                ],
                [
                    -0.27931278944015503,
                    0.15517811477184296,
                    0.19937695562839508
                ]
            ],
            [
                [
                    0.10998504608869553,
                    0.08985219895839691,
                    -0.01088693831115961
                ],
                [
                    -0.0020612399093806744,
                    0.19006972014904022,
                    0.14387020468711853
                ],
                [
                    0.252167671918869,
                    0.23943857848644257,
                    0.1178414523601532
                ]
            ],
            [
                [
                    -0.12036256492137909,
                    0.04739932715892792,
                    0.09153497964143753
                ],
                [
                    -0.03130714222788811,
                    0.07447806745767593,
                    -0.0016559790819883347
                ],
                [
                    -0.11030407249927521,
                    -0.09968994557857513,
                    -0.04746174067258835
                ]
            ],
            [
                [
                    0.10315174609422684,
                    0.08803573995828629,
                    -0.07223346829414368
                ],
                [
                    0.23242536187171936,
                    0.02225194312632084,
                    -0.11628025770187378
                ],
                [
                    0.17740482091903687,
                    0.015893200412392616,
                    -0.10356120765209198
                ]
            ],
            [
                [
                    0.5370356440544128,
                    -0.21427035331726074,
                    0.40446677803993225
                ],
                [
                    0.3644615709781647,
                    -0.012425301596522331,
                    0.11347635835409164
                ],
                [
                    -0.18815664947032928,
                    0.07601286470890045,
                    0.15695007145404816
                ]
            ],
            [
                [
                    -0.0951189324259758,
                    -0.1570056527853012,
                    -0.025358742102980614
                ],
                [
                    -0.3754848837852478,
                    0.01868431456387043,
                    -0.05127926170825958
                ],
                [
                    -0.45254451036453247,
                    0.225582554936409,
                    -0.07611150294542313
                ]
            ],
            [
                [
                    0.28346261382102966,
                    0.07679510116577148,
                    -0.010700901970267296
                ],
                [
                    0.19646964967250824,
                    0.14949727058410645,
                    0.1591670960187912
                ],
                [
                    0.4764693081378937,
                    -0.05070686712861061,
                    0.03130020201206207
                ]
            ],
            [
                [
                    -0.06610686331987381,
                    -0.03193534165620804,
                    -0.055624183267354965
                ],
                [
                    -0.21231217682361603,
                    -0.16126422584056854,
                    -0.03803477808833122
                ],
                [
                    -0.021630771458148956,
                    -0.32940706610679626,
                    -0.08331722766160965
                ]
            ],
            [
                [
                    0.07079531997442245,
                    -0.007902213372290134,
                    0.3705304265022278
                ],
                [
                    0.11456475406885147,
                    -0.10130909085273743,
                    0.045668408274650574
                ],
                [
                    -0.11380376666784286,
                    0.03617991879582405,
                    0.14373929798603058
                ]
            ],
            [
                [
                    0.050900720059871674,
                    -0.05021155998110771,
                    0.061226747930049896
                ],
                [
                    -0.27211835980415344,
                    0.14200110733509064,
                    0.0018856457900255919
                ],
                [
                    -0.02765651047229767,
                    -0.17454418540000916,
                    -0.09663376957178116
                ]
            ],
            [
                [
                    -0.053880587220191956,
                    -0.038386039435863495,
                    -0.2926190197467804
                ],
                [
                    0.028704147785902023,
                    -0.02551475167274475,
                    -0.16637979447841644
                ],
                [
                    -0.0021428398322314024,
                    -0.1683669537305832,
                    -0.13779833912849426
                ]
            ],
            [
                [
                    0.08100636303424835,
                    0.03236084058880806,
                    -0.09131445735692978
                ],
                [
                    0.011740419082343578,
                    -0.09829273074865341,
                    -0.10490898042917252
                ],
                [
                    0.07153329998254776,
                    -0.3701697587966919,
                    -0.1151181161403656
                ]
            ],
            [
                [
                    -0.7043150663375854,
                    -0.11374286562204361,
                    -0.14396502077579498
                ],
                [
                    0.17692920565605164,
                    -0.18662749230861664,
                    -0.18600714206695557
                ],
                [
                    0.3957430422306061,
                    -0.27643153071403503,
                    -0.09914475679397583
                ]
            ],
            [
                [
                    0.1909371316432953,
                    0.29186177253723145,
                    -0.23842394351959229
                ],
                [
                    0.23552565276622772,
                    0.16586284339427948,
                    -0.041032738983631134
                ],
                [
                    0.23606856167316437,
                    0.11347775906324387,
                    -0.05560548976063728
                ]
            ],
            [
                [
                    -0.23147764801979065,
                    -0.27938538789749146,
                    -0.3574258089065552
                ],
                [
                    0.7404177188873291,
                    -0.4094277322292328,
                    -0.3123173117637634
                ],
                [
                    0.5477720499038696,
                    -0.29611799120903015,
                    -0.21440622210502625
                ]
            ],
            [
                [
                    0.0369577631354332,
                    0.21470436453819275,
                    -0.14831024408340454
                ],
                [
                    -0.3483988344669342,
                    0.316009521484375,
                    0.031792718917131424
                ],
                [
                    0.05889119207859039,
                    0.11218518763780594,
                    0.13535985350608826
                ]
            ],
            [
                [
                    -0.3668094277381897,
                    -0.01204666867852211,
                    -0.3227720558643341
                ],
                [
                    0.66630619764328,
                    -0.23654155433177948,
                    -0.04729684814810753
                ],
                [
                    0.7885609865188599,
                    -0.315521240234375,
                    -0.06287945061922073
                ]
            ],
            [
                [
                    0.2377241551876068,
                    -0.1647905558347702,
                    0.0755869448184967
                ],
                [
                    0.379040002822876,
                    -0.04112385958433151,
                    -0.014712301082909107
                ],
                [
                    0.1890389323234558,
                    -0.006273317616432905,
                    0.08157053589820862
                ]
            ],
            [
                [
                    -0.2538011074066162,
                    -0.26301464438438416,
                    -0.2152840495109558
                ],
                [
                    0.1401495784521103,
                    -0.21038155257701874,
                    -0.29228174686431885
                ],
                [
                    0.1756717711687088,
                    -0.05871286615729332,
                    -0.31457507610321045
                ]
            ]
        ],
        [
            [
                [
                    -0.11815755069255829,
                    0.02520689181983471,
                    -0.028298774734139442
                ],
                [
                    -0.024017103016376495,
                    0.05392568185925484,
                    0.008472994901239872
                ],
                [
                    -0.0655733197927475,
                    -0.04595893248915672,
                    -0.00701854657381773
                ]
            ],
            [
                [
                    -0.10178158432245255,
                    -0.060411859303712845,
                    -0.020961003378033638
                ],
                [
                    -0.17596478760242462,
                    0.041996296495199203,
                    -0.05034222826361656
                ],
                [
                    -0.021830949932336807,
                    -0.0553913377225399,
                    -0.04747574031352997
                ]
            ],
            [
                [
                    -0.025180641561746597,
                    0.006844594143331051,
                    0.044221095740795135
                ],
                [
                    -0.03649083524942398,
                    -0.07380881905555725,
                    0.04300488904118538
                ],
                [
                    -0.08179763704538345,
                    -0.0354442372918129,
                    0.036281272768974304
                ]
            ],
            [
                [
                    -0.15343014895915985,
                    -0.07868154346942902,
                    -0.013841131702065468
                ],
                [
                    -0.13231882452964783,
                    0.019419878721237183,
                    0.05583767220377922
                ],
                [
                    -0.1695302128791809,
                    -0.05395868793129921,
                    0.05651063844561577
                ]
            ],
            [
                [
                    0.017065171152353287,
                    0.05417143180966377,
                    -0.03472661226987839
                ],
                [
                    -0.04603027552366257,
                    -0.016726110130548477,
                    -0.07169926166534424
                ],
                [
                    0.02788401208817959,
                    0.02419089898467064,
                    0.013813460245728493
                ]
            ],
            [
                [
                    -0.01526214461773634,
                    0.03078852780163288,
                    -0.053143251687288284
                ],
                [
                    0.06007865071296692,
                    -0.07827639579772949,
                    -0.0747515931725502
                ],
                [
                    -0.04406826198101044,
                    0.05535808950662613,
                    0.002587871626019478
                ]
            ],
            [
                [
                    -0.053558673709630966,
                    -0.060216475278139114,
                    0.024908632040023804
                ],
                [
                    -0.0898999273777008,
                    0.024416735395789146,
                    0.04984114319086075
                ],
                [
                    -0.03252297267317772,
                    -0.029201503843069077,
                    -0.006983219180256128
                ]
            ],
            [
                [
                    -0.04906423017382622,
                    -0.03179944306612015,
                    0.04485875368118286
                ],
                [
                    -0.03153327479958534,
                    0.036797188222408295,
                    -0.031582921743392944
                ],
                [
                    -0.023018892854452133,
                    -0.01392578799277544,
                    -0.07025880366563797
                ]
            ],
            [
                [
                    -0.01419005636125803,
                    -0.02327018789947033,
                    -0.01085904985666275
                ],
                [
                    -0.015712875872850418,
                    0.04527164623141289,
                    0.05185844376683235
                ],
                [
                    -0.05619634687900543,
                    -0.013128968887031078,
                    -0.060197073966264725
                ]
            ],
            [
                [
                    -0.06387387216091156,
                    0.015699677169322968,
                    -0.004175427835434675
                ],
                [
                    -0.03435274213552475,
                    -0.07914957404136658,
                    -0.0304639283567667
                ],
                [
                    0.020248139277100563,
                    -0.08338454365730286,
                    -0.07666866481304169
                ]
            ],
            [
                [
                    -0.017905525863170624,
                    -0.05909966304898262,
                    -0.06668679416179657
                ],
                [
                    -0.05359960347414017,
                    -0.0198970977216959,
                    -0.06915079802274704
                ],
                [
                    -0.06781367212533951,
                    -0.030647020787000656,
                    -0.070856973528862
                ]
            ],
            [
                [
                    -0.1137370839715004,
                    -0.05777491629123688,
                    -0.05552168935537338
                ],
                [
                    -0.06379300355911255,
                    -0.06264080852270126,
                    -0.060111209750175476
                ],
                [
                    -0.026250382885336876,
                    -0.008404119871556759,
                    0.06341981142759323
                ]
            ],
            [
                [
                    -0.14747831225395203,
                    -0.04171382635831833,
                    -0.009660515002906322
                ],
                [
                    -0.12254059314727783,
                    0.047498587518930435,
                    -0.0762798860669136
                ],
                [
                    -0.10048115998506546,
                    0.0007184225250966847,
                    -0.04398706182837486
                ]
            ],
            [
                [
                    -0.10961278527975082,
                    0.029854992404580116,
                    -0.07318872213363647
                ],
                [
                    -0.047088366001844406,
                    -0.06467294692993164,
                    0.03477821499109268
                ],
                [
                    -0.11135773360729218,
                    0.034420743584632874,
                    -0.07271410524845123
                ]
            ],
            [
                [
                    -0.297002911567688,
                    -0.004413386806845665,
                    0.050486739724874496
                ],
                [
                    -0.29404473304748535,
                    -0.03958027437329292,
                    0.0589434951543808
                ],
                [
                    -0.19560112059116364,
                    -0.01211401354521513,
                    -0.07787012308835983
                ]
            ],
            [
                [
                    -0.02649955451488495,
                    -0.04011085629463196,
                    0.055672451853752136
                ],
                [
                    0.02290606126189232,
                    -0.06272777915000916,
                    0.008516843430697918
                ],
                [
                    -0.016114499419927597,
                    -0.03754258528351784,
                    -0.046580683439970016
                ]
            ],
            [
                [
                    -0.3685424029827118,
                    0.0466914102435112,
                    -0.06207587197422981
                ],
                [
                    -0.37971147894859314,
                    -0.03142287954688072,
                    -0.006972138769924641
                ],
                [
                    -0.23151059448719025,
                    -0.04395168274641037,
                    -0.02726096473634243
                ]
            ],
            [
                [
                    -0.08552135527133942,
                    -0.02156185917556286,
                    -0.031689394265413284
                ],
                [
                    0.0255354642868042,
                    -0.0796889141201973,
                    -0.04932570829987526
                ],
                [
                    -0.0839461162686348,
                    -0.03794008120894432,
                    0.05551856383681297
                ]
            ],
            [
                [
                    -0.23565898835659027,
                    -0.0701928362250328,
                    -0.012892263941466808
                ],
                [
                    -0.25392061471939087,
                    0.02630796656012535,
                    0.05317852646112442
                ],
                [
                    -0.243284210562706,
                    -0.06884262710809708,
                    0.03979583457112312
                ]
            ]
        ],
        [
            [
                [
                    -0.03940987586975098,
                    -0.017786476761102676,
                    -0.027825649827718735
                ],
                [
                    0.018581613898277283,
                    0.0009030777728185058,
                    0.06019553169608116
                ],
                [
                    -0.06648294627666473,
                    -0.136449933052063,
                    -0.05917384847998619
                ]
            ],
            [
                [
                    -0.06379293650388718,
                    0.06185457482933998,
                    -0.022888073697686195
                ],
                [
                    -0.06034835800528526,
                    -0.04732009395956993,
                    -0.05631811544299126
                ],
                [
                    0.03600844740867615,
                    -0.1174314096570015,
                    -0.08966074883937836
                ]
            ],
            [
                [
                    -0.07811297476291656,
                    0.011421680450439453,
                    0.020499998703598976
                ],
                [
                    -0.04399557039141655,
                    -0.011065182276070118,
                    0.03689200431108475
                ],
                [
                    0.01695721037685871,
                    -0.07283907383680344,
                    -0.02723655477166176
                ]
            ],
            [
                [
                    -0.06174740940332413,
                    -0.05039124935865402,
                    -0.07967023551464081
                ],
                [
                    -0.005132067948579788,
                    -0.048262059688568115,
                    -0.07432334870100021
                ],
                [
                    0.022317728027701378,
                    -0.010087351314723492,
                    -0.0815446525812149
                ]
            ],
            [
                [
                    -0.03359756991267204,
                    0.008481125347316265,
                    -0.0720142126083374
                ],
                [
                    0.020387783646583557,
                    -0.02014598250389099,
                    0.03503146022558212
                ],
                [
                    -0.07318530231714249,
                    -0.0994253009557724,
                    -0.013169758953154087
                ]
            ],
            [
                [
                    0.027130044996738434,
                    -0.08905407786369324,
                    -0.050162170082330704
                ],
                [
                    -0.061449743807315826,
                    -0.07551468908786774,
                    -0.04552058130502701
                ],
                [
                    0.08053217828273773,
                    -0.06618544459342957,
                    0.016688451170921326
                ]
            ],
            [
                [
                    0.03646811470389366,
                    -0.031116927042603493,
                    -0.07718367129564285
                ],
                [
                    0.01672864891588688,
                    -0.05031623691320419,
                    0.04586765915155411
                ],
                [
                    -0.08370143175125122,
                    -0.05469679832458496,
                    0.02054642327129841
                ]
            ],
            [
                [
                    -0.0810542106628418,
                    -0.023226339370012283,
                    0.05147245526313782
                ],
                [
                    -0.060955263674259186,
                    -0.011483738198876381,
                    0.013194581493735313
                ],
                [
                    0.027188949286937714,
                    0.015914825722575188,
                    0.027043310925364494
                ]
            ],
            [
                [
                    0.047051072120666504,
                    -0.03422286733984947,
                    0.052375201135873795
                ],
                [
                    -0.08088584989309311,
                    -0.0760795846581459,
                    -0.025227481499314308
                ],
                [
                    -0.03099868819117546,
                    0.027139734476804733,
                    -0.011384895071387291
                ]
            ],
            [
                [
                    0.005632223095744848,
                    2.4881568606360815e-05,
                    -0.0795152485370636
                ],
                [
                    -0.03587630018591881,
                    -0.03274868056178093,
                    -0.018775679171085358
                ],
                [
                    0.025256408378481865,
                    -0.11026360839605331,
                    -0.0901501253247261
                ]
            ],
            [
                [
                    0.04312846064567566,
                    -0.054820798337459564,
                    -0.059684719890356064
                ],
                [
                    0.03643050044775009,
                    0.009834806434810162,
                    -0.03304917365312576
                ],
                [
                    -0.024113085120916367,
                    -0.0958971381187439,
                    -0.0897124856710434
                ]
            ],
            [
                [
                    -0.00011235725833103061,
                    -0.08192731440067291,
                    0.04194711148738861
                ],
                [
                    -0.08068503439426422,
                    -0.07049378007650375,
                    -0.017675697803497314
                ],
                [
                    0.03345511481165886,
                    0.007299633696675301,
                    0.008305884897708893
                ]
            ],
            [
                [
                    0.009484442882239819,
                    -0.09502604603767395,
                    -0.05938223376870155
                ],
                [
                    -0.0824265331029892,
                    -0.07086772471666336,
                    0.05868028476834297
                ],
                [
                    -0.017569204792380333,
                    -0.09037607163190842,
                    -0.08184580504894257
                ]
            ],
            [
                [
                    -0.022873498499393463,
                    0.019515609368681908,
                    -0.0946880504488945
                ],
                [
                    -0.06841379404067993,
                    0.03049413673579693,
                    -0.005429987329989672
                ],
                [
                    -0.014575800858438015,
                    -0.025043437257409096,
                    -0.07681380957365036
                ]
            ],
            [
                [
                    -0.09463970363140106,
                    -0.20199014246463776,
                    0.0049407570622861385
                ],
                [
                    -0.041588712483644485,
                    -0.1867935061454773,
                    -0.05613197013735771
                ],
                [
                    -0.07793018221855164,
                    -0.17745359241962433,
                    -0.10470440238714218
                ]
            ],
            [
                [
                    0.024525078013539314,
                    0.008326627314090729,
                    -0.04687894508242607
                ],
                [
                    -0.020717203617095947,
                    0.010030155070126057,
                    -0.032684266567230225
                ],
                [
                    0.022612439468503,
                    -0.030948998406529427,
                    -0.054821502417325974
                ]
            ],
            [
                [
                    -0.037557452917099,
                    -0.11188501119613647,
                    0.024829702451825142
                ],
                [
                    -0.06842939555644989,
                    -0.1595536768436432,
                    0.026456860825419426
                ],
                [
                    -0.09985554218292236,
                    -0.11799494177103043,
                    0.009730135090649128
                ]
            ],
            [
                [
                    -0.06139172241091728,
                    0.05056992173194885,
                    0.04777070879936218
                ],
                [
                    0.04431759566068649,
                    -0.024814225733280182,
                    0.0471731461584568
                ],
                [
                    -0.05339602008461952,
                    -0.04216774180531502,
                    -0.003100167028605938
                ]
            ],
            [
                [
                    -0.01931471936404705,
                    -0.06347963213920593,
                    0.044938284903764725
                ],
                [
                    -0.06804440915584564,
                    -0.08484917134046555,
                    0.00375450705178082
                ],
                [
                    0.016972437500953674,
                    -0.08765202760696411,
                    -0.05164997652173042
                ]
            ]
        ],
        [
            [
                [
                    -0.26162758469581604,
                    0.19080878794193268,
                    -0.0828041285276413
                ],
                [
                    -0.07131153345108032,
                    -0.15728865563869476,
                    -0.030461899936199188
                ],
                [
                    -0.3907290995121002,
                    -0.3285931646823883,
                    0.0391773097217083
                ]
            ],
            [
                [
                    0.14139842987060547,
                    0.20129196345806122,
                    0.0957261249423027
                ],
                [
                    -0.057811882346868515,
                    0.1365860253572464,
                    0.1764407604932785
                ],
                [
                    -0.24468782544136047,
                    0.27225789427757263,
                    0.23838426172733307
                ]
            ],
            [
                [
                    0.44372496008872986,
                    0.20858024060726166,
                    0.1422174572944641
                ],
                [
                    0.3536726236343384,
                    0.11887210607528687,
                    0.1282031238079071
                ],
                [
                    -0.11510299146175385,
                    0.061944421380758286,
                    0.21078912913799286
                ]
            ],
            [
                [
                    0.10290632396936417,
                    0.266495019197464,
                    0.07925459742546082
                ],
                [
                    0.13506382703781128,
                    0.21984557807445526,
                    0.12127838283777237
                ],
                [
                    -0.20443958044052124,
                    0.05436106026172638,
                    0.1514742523431778
                ]
            ],
            [
                [
                    -0.031104866415262222,
                    0.29968494176864624,
                    0.4011371433734894
                ],
                [
                    0.13752934336662292,
                    0.48712480068206787,
                    0.04517519101500511
                ],
                [
                    0.10011851787567139,
                    0.11319097876548767,
                    0.4382421374320984
                ]
            ],
            [
                [
                    0.5194047689437866,
                    0.15423347055912018,
                    -0.04038163647055626
                ],
                [
                    0.19048960506916046,
                    -0.2405754178762436,
                    0.005453220568597317
                ],
                [
                    -0.18316935002803802,
                    -0.002667892025783658,
                    0.0993775948882103
                ]
            ],
            [
                [
                    -0.2533382177352905,
                    0.3481726050376892,
                    -0.1328025907278061
                ],
                [
                    -0.08788691461086273,
                    0.4295622706413269,
                    0.0791175365447998
                ],
                [
                    0.004994501359760761,
                    0.1403571367263794,
                    0.02605357952415943
                ]
            ],
            [
                [
                    0.19421423971652985,
                    0.09746710956096649,
                    0.1020585224032402
                ],
                [
                    0.02155718207359314,
                    -0.13592641055583954,
                    0.1809069663286209
                ],
                [
                    -0.3869315981864929,
                    -0.2322544902563095,
                    0.2573435604572296
                ]
            ],
            [
                [
                    -0.36111319065093994,
                    0.20710130035877228,
                    0.10879833251237869
                ],
                [
                    0.0983579084277153,
                    0.355529248714447,
                    -0.2457444667816162
                ],
                [
                    0.18281762301921844,
                    0.19642090797424316,
                    0.13055835664272308
                ]
            ],
            [
                [
                    -0.4624529778957367,
                    -0.009488062001764774,
                    0.06059287488460541
                ],
                [
                    0.12057080119848251,
                    -0.13578703999519348,
                    0.11693979054689407
                ],
                [
                    -0.03136570751667023,
                    -0.3152090013027191,
                    0.16413664817810059
                ]
            ],
            [
                [
                    0.06689591705799103,
                    0.1253388673067093,
                    0.06687160581350327
                ],
                [
                    0.26368582248687744,
                    0.06859645247459412,
                    -0.04979994520545006
                ],
                [
                    0.21695052087306976,
                    -0.11142895370721817,
                    0.047936029732227325
                ]
            ],
            [
                [
                    -0.0739135816693306,
                    0.29503050446510315,
                    0.14326965808868408
                ],
                [
                    0.07842333614826202,
                    0.14472033083438873,
                    0.17478404939174652
                ],
                [
                    -0.10862311720848083,
                    -0.1347484588623047,
                    0.07378634065389633
                ]
            ],
            [
                [
                    0.4388977587223053,
                    -0.22324822843074799,
                    0.017454415559768677
                ],
                [
                    0.5009057521820068,
                    -0.10141807794570923,
                    -0.027772074565291405
                ],
                [
                    -0.11250835657119751,
                    -0.15600480139255524,
                    0.11741423606872559
                ]
            ],
            [
                [
                    0.5160740613937378,
                    0.39979279041290283,
                    0.22266195714473724
                ],
                [
                    0.3264458477497101,
                    0.16465306282043457,
                    0.18935216963291168
                ],
                [
                    -0.20488408207893372,
                    0.08460301905870438,
                    0.08224481344223022
                ]
            ],
            [
                [
                    -0.7187135219573975,
                    -0.26914700865745544,
                    0.4147621691226959
                ],
                [
                    -0.9045082330703735,
                    0.21242181956768036,
                    0.4004012644290924
                ],
                [
                    -0.8346801400184631,
                    0.3755216896533966,
                    0.22008982300758362
                ]
            ],
            [
                [
                    0.046757690608501434,
                    0.15908777713775635,
                    -0.059870395809412
                ],
                [
                    -0.4140167832374573,
                    0.16997793316841125,
                    0.2888253927230835
                ],
                [
                    -0.21386228501796722,
                    0.3187665045261383,
                    0.1683107316493988
                ]
            ],
            [
                [
                    -0.17654839158058167,
                    0.07777654379606247,
                    -0.10735635459423065
                ],
                [
                    -0.03497115150094032,
                    0.7199987173080444,
                    -0.10702366381883621
                ],
                [
                    -0.05451081320643425,
                    0.48233431577682495,
                    -0.10900376737117767
                ]
            ],
            [
                [
                    0.11425996571779251,
                    0.21891023218631744,
                    0.14848706126213074
                ],
                [
                    0.10739927738904953,
                    0.3619399964809418,
                    0.009960098192095757
                ],
                [
                    -0.09798678755760193,
                    0.10002408176660538,
                    0.09724588692188263
                ]
            ],
            [
                [
                    -0.2927735447883606,
                    -0.07976328581571579,
                    0.2540702521800995
                ],
                [
                    -0.5120465755462646,
                    0.10669094324111938,
                    0.2040298581123352
                ],
                [
                    -0.6346477270126343,
                    0.3870372176170349,
                    0.1995827704668045
                ]
            ]
        ],
        [
            [
                [
                    -0.27667081356048584,
                    0.22862407565116882,
                    -0.2016056329011917
                ],
                [
                    -0.44949638843536377,
                    0.384009450674057,
                    -0.1775733381509781
                ],
                [
                    -0.2658296823501587,
                    0.21878188848495483,
                    -0.5709848999977112
                ]
            ],
            [
                [
                    0.29517415165901184,
                    0.040697310119867325,
                    0.05821424350142479
                ],
                [
                    0.31885087490081787,
                    0.136402428150177,
                    0.05111708492040634
                ],
                [
                    0.14429982006549835,
                    -0.018055927008390427,
                    -0.10279238969087601
                ]
            ],
            [
                [
                    -0.2934723198413849,
                    -0.34759998321533203,
                    -0.016901401802897453
                ],
                [
                    0.04424013942480087,
                    -0.22711341083049774,
                    0.07704032212495804
                ],
                [
                    -0.10234129428863525,
                    0.24233756959438324,
                    0.09931302815675735
                ]
            ],
            [
                [
                    0.08977717906236649,
                    -0.19913561642169952,
                    -0.13828794658184052
                ],
                [
                    0.19716395437717438,
                    -0.153750941157341,
                    -0.11149156093597412
                ],
                [
                    0.019787155091762543,
                    0.09211286902427673,
                    -0.037561677396297455
                ]
            ],
            [
                [
                    0.6774452328681946,
                    -0.03233816474676132,
                    0.23589350283145905
                ],
                [
                    0.09613882750272751,
                    -0.24625231325626373,
                    0.42884740233421326
                ],
                [
                    -0.45658841729164124,
                    0.1352010816335678,
                    0.3809608519077301
                ]
            ],
            [
                [
                    0.024867763742804527,
                    -0.09742143005132675,
                    -0.15115571022033691
                ],
                [
                    0.35626882314682007,
                    0.23952190577983856,
                    -0.09618864953517914
                ],
                [
                    0.6844204664230347,
                    0.4217691719532013,
                    -0.256366103887558
                ]
            ],
            [
                [
                    0.3031116724014282,
                    -0.0548427514731884,
                    -0.06761756539344788
                ],
                [
                    0.24535395205020905,
                    -0.0025099734775722027,
                    -0.03234201297163963
                ],
                [
                    -0.15875035524368286,
                    -0.1714060753583908,
                    -0.1101822629570961
                ]
            ],
            [
                [
                    -0.07947683334350586,
                    -0.2829979956150055,
                    -0.016285143792629242
                ],
                [
                    -0.051879726350307465,
                    -0.18270468711853027,
                    -0.003314368426799774
                ],
                [
                    0.09270641207695007,
                    0.04438640922307968,
                    0.042033594101667404
                ]
            ],
            [
                [
                    0.030815547332167625,
                    -0.01626875437796116,
                    0.15802277624607086
                ],
                [
                    -0.39781299233436584,
                    -0.16612432897090912,
                    0.45087936520576477
                ],
                [
                    -0.2629084289073944,
                    0.3494607210159302,
                    0.4391725957393646
                ]
            ],
            [
                [
                    -0.25610339641571045,
                    -0.39857539534568787,
                    -0.330504447221756
                ],
                [
                    -0.42604005336761475,
                    -0.16554975509643555,
                    -0.20368656516075134
                ],
                [
                    -0.2750006914138794,
                    -0.19883565604686737,
                    -0.29009681940078735
                ]
            ],
            [
                [
                    -0.357717365026474,
                    -0.054827697575092316,
                    -0.23490208387374878
                ],
                [
