weights['RES8_NARROW'] = {
    "bn1.num_batches_tracked": 576,
    "bn1.running_mean": [
        2.615705297680622e-26,
        4.136919431155425e-23,
        1.3230177164077759,
        3.829823472110061e-15,
        1.3009461164474487,
        1.8077276945114136,
        4.770559310913086,
        0.09955686330795288,
        2.9794423580169678,
        1.6579914093017578,
        3.779655933380127,
        2.519287347793579,
        3.906416654586792,
        0.1283566653728485,
        0.1845419853925705,
        1.1792292106511883e-16,
        2.565141439437866,
        0.018656950443983078,
        3.7827960409687454e-27
    ],
    "bn1.running_var": [
        7.905700216759797e-26,
        3.0881511350960534e-22,
        33.264991760253906,
        2.4793630148088608e-14,
        32.557186126708984,
        47.35710144042969,
        122.6825180053711,
        0.816929042339325,
        124.76995849609375,
        46.84172821044922,
        195.11892700195312,
        81.97145080566406,
        135.9379119873047,
        3.242713451385498,
        1.8886276483535767,
        1.7301195342711248e-15,
        63.18723678588867,
        0.15212222933769226,
        5.9845476571554104e-27
    ],
    "bn2.num_batches_tracked": 576,
    "bn2.running_mean": [
        1.4637565612792969,
        0.9061170220375061,
        2.2136800289154053,
        1.4145747423171997,
        2.372667074203491,
        1.3560703992843628,
        1.4884129762649536,
        1.2784398794174194,
        2.567469835281372,
        1.7794082164764404,
        0.4947713017463684,
        1.707727074623108,
        1.1401519775390625,
        1.3938055038452148,
        0.6682957410812378,
        1.0432462692260742,
        1.0973777770996094,
        1.239119529724121,
        2.933511972427368
    ],
    "bn2.running_var": [
        0.49768000841140747,
        3.2394015789031982,
        2.6955363750457764,
        1.5721962451934814,
        1.7709338665008545,
        0.8118563294410706,
        0.7558425664901733,
        0.4651436507701874,
        1.1919629573822021,
        1.3715003728866577,
        0.6991782188415527,
        0.8126357793807983,
        2.436570167541504,
        0.9436855316162109,
        3.180966854095459,
        2.294851779937744,
        2.9724435806274414,
        0.8367290496826172,
        77.06178283691406
    ],
    "bn3.num_batches_tracked": 576,
    "bn3.running_mean": [
        0.5690194368362427,
        0.6720558404922485,
        0.5284970998764038,
        0.6611025929450989,
        0.7772423624992371,
        0.8203750848770142,
        0.7061245441436768,
        0.6359580755233765,
        1.1389223337173462,
        0.7472264170646667,
        0.6919391751289368,
        0.8349644541740417,
        0.85514897108078,
        0.5374531745910645,
        1.5469589233398438,
        0.626557469367981,
        0.4706091284751892,
        1.2830138206481934,
        0.7733513116836548
    ],
    "bn3.running_var": [
        1.1344261169433594,
        1.7341288328170776,
        2.0449132919311523,
        2.917484760284424,
        2.8884525299072266,
        3.7622175216674805,
        2.6224231719970703,
        2.7449939250946045,
        1.8952312469482422,
        3.0996267795562744,
        3.1585259437561035,
        3.801055431365967,
        0.9846945405006409,
        2.5872035026550293,
        1.8868950605392456,
        2.096125602722168,
        1.3232183456420898,
        2.331159830093384,
        2.839428663253784
    ],
    "bn4.num_batches_tracked": 576,
    "bn4.running_mean": [
        2.100985288619995,
        2.097399950027466,
        3.092841386795044,
        2.1662437915802,
        3.4279677867889404,
        2.48421311378479,
        2.1126906871795654,
        2.0636837482452393,
        3.3397274017333984,
        2.4557571411132812,
        1.2641775608062744,
        2.4484055042266846,
        1.5942753553390503,
        2.5973081588745117,
        1.3107038736343384,
        2.400573253631592,
        1.5621519088745117,
        2.1090176105499268,
        3.2042155265808105
    ],
    "bn4.running_var": [
        2.095266103744507,
        3.096665859222412,
        4.480635166168213,
        5.166276931762695,
        5.09938383102417,
        3.478311061859131,
        1.7448375225067139,
        2.2785680294036865,
        2.784071922302246,
        4.738498210906982,
        3.6143124103546143,
        1.679766058921814,
        2.998222827911377,
        3.2055745124816895,
        5.401125431060791,
        3.671104907989502,
        3.137049436569214,
        2.862976551055908,
        77.65744018554688
    ],
    "bn5.num_batches_tracked": 576,
    "bn5.running_mean": [
        0.6667380332946777,
        0.5609706044197083,
        0.4252593219280243,
        0.6324044466018677,
        0.5481060147285461,
        0.5133485198020935,
        0.5197643041610718,
        0.5136726498603821,
        0.7003539204597473,
        1.036865472793579,
        0.5854395031929016,
        0.7531352639198303,
        0.47772547602653503,
        0.7053031325340271,
        0.5794779658317566,
        0.8515554666519165,
        0.8038120865821838,
        0.6481285095214844,
        0.5626449584960938
    ],
    "bn5.running_var": [
        2.9590606689453125,
        1.3640611171722412,
        1.0582594871520996,
        2.539125680923462,
        1.199448823928833,
        1.9249976873397827,
        1.8973124027252197,
        0.8401049375534058,
        0.7327139377593994,
        0.9794735312461853,
        1.091628909111023,
        0.8771279454231262,
        1.7836719751358032,
        2.348997116088867,
        1.9058746099472046,
        0.7481418251991272,
        1.2439184188842773,
        2.514650344848633,
        1.2484581470489502
    ],
    "bn6.num_batches_tracked": 576,
    "bn6.running_mean": [
        2.8915693759918213,
        3.041992425918579,
        5.0414018630981445,
        2.9952094554901123,
        5.1231865882873535,
        3.9615983963012695,
        3.037613868713379,
        3.068305730819702,
        4.39763879776001,
        3.5918986797332764,
        3.1089911460876465,
        3.435067653656006,
        2.5835843086242676,
        3.659187078475952,
        2.58984637260437,
        3.7400248050689697,
        3.241137981414795,
        3.7128961086273193,
        3.606257677078247
    ],
    "bn6.running_var": [
        11.852118492126465,
        7.218555450439453,
        44.84963607788086,
        10.712060928344727,
        8.665181159973145,
        30.776403427124023,
        7.969965934753418,
        7.014825820922852,
        10.577051162719727,
        17.62800407409668,
        4.319339275360107,
        8.137709617614746,
        15.99649715423584,
        13.401079177856445,
        8.405503273010254,
        4.725796222686768,
        28.80609703063965,
        7.361003875732422,
        78.00467681884766
    ],
    "conv0.weight": [
        [
            [
                [
                    -0.1656804382801056,
                    -0.02374807931482792,
                    -0.8741876482963562
                ],
                [
                    -0.09774579107761383,
                    -0.2752760350704193,
                    -0.16482196748256683
                ],
                [
                    0.7526574730873108,
                    0.45892783999443054,
                    0.11150530725717545
                ]
            ]
        ],
        [
            [
                [
                    -0.034701257944107056,
                    -0.06172773241996765,
                    -0.16455376148223877
                ],
                [
                    -0.601251482963562,
                    -0.869481086730957,
                    -0.6816586256027222
                ],
                [
                    0.8788745999336243,
                    0.504416286945343,
                    0.4793156683444977
                ]
            ]
        ],
        [
            [
                [
                    0.4541044235229492,
                    0.7389786839485168,
                    -0.12950251996517181
                ],
                [
                    0.6986377835273743,
                    0.5933061838150024,
                    0.17079409956932068
                ],
                [
                    -0.5423637628555298,
                    0.4749957025051117,
                    0.3982260227203369
                ]
            ]
        ],
        [
            [
                [
                    -0.5785778164863586,
                    0.19382689893245697,
                    -0.22399070858955383
                ],
                [
                    -0.015279021114110947,
                    0.4379195272922516,
                    -0.458089143037796
                ],
                [
                    0.6894108653068542,
                    -0.17720884084701538,
                    -0.3620452284812927
                ]
            ]
        ],
        [
            [
                [
                    0.44015130400657654,
                    1.2459142208099365,
                    0.5785845518112183
                ],
                [
                    0.3091767132282257,
                    0.3631612956523895,
                    0.08147496730089188
                ],
                [
                    -1.0101383924484253,
                    -1.2797956466674805,
                    -0.7789096236228943
                ]
            ]
        ],
        [
            [
                [
                    -0.21093125641345978,
                    0.5972626209259033,
                    0.06548041850328445
                ],
                [
                    -0.030561726540327072,
                    0.07534585893154144,
                    -0.028128372505307198
                ],
                [
                    0.8782997131347656,
                    -0.004159837029874325,
                    -0.10919792950153351
                ]
            ]
        ],
        [
            [
                [
                    0.5571049451828003,
                    -0.22705377638339996,
                    -0.11728576570749283
                ],
                [
                    0.0741075649857521,
                    0.18979479372501373,
                    -0.3629531264305115
                ],
                [
                    -0.13140369951725006,
                    0.5747623443603516,
                    -0.3260481655597687
                ]
            ]
        ],
        [
            [
                [
                    0.02307552471756935,
                    0.31063640117645264,
                    -0.26691940426826477
                ],
                [
                    0.178882896900177,
                    0.11521805077791214,
                    0.006740732118487358
                ],
                [
                    0.397197961807251,
                    -0.292915403842926,
                    -0.200280100107193
                ]
            ]
        ],
        [
            [
                [
                    0.8376887440681458,
                    1.0992050170898438,
                    1.0084028244018555
                ],
                [
                    0.24610233306884766,
                    0.1376805305480957,
                    -0.2728532552719116
                ],
                [
                    -0.9189620018005371,
                    -0.8308843374252319,
                    -1.2080801725387573
                ]
            ]
        ],
        [
            [
                [
                    1.1506686210632324,
                    -0.6814670562744141,
                    -0.3326137363910675
                ],
                [
                    0.3899151384830475,
                    0.11766061931848526,
                    -0.40316033363342285
                ],
                [
                    -0.624850869178772,
                    1.080020546913147,
                    -0.582351565361023
                ]
            ]
        ],
        [
            [
                [
                    0.5610519647598267,
                    0.4057786762714386,
                    0.4118397533893585
                ],
                [
                    -0.04281783103942871,
                    -0.30630332231521606,
                    -0.19986563920974731
                ],
                [
                    -0.1337551772594452,
                    0.15448428690433502,
                    -0.2687348425388336
                ]
            ]
        ],
        [
            [
                [
                    -0.7802980542182922,
                    1.076197624206543,
                    0.08307681977748871
                ],
                [
                    0.1963489055633545,
                    0.04516160115599632,
                    -0.5690977573394775
                ],
                [
                    1.1612186431884766,
                    -0.7778815031051636,
                    -0.400418758392334
                ]
            ]
        ],
        [
            [
                [
                    0.3916274905204773,
                    0.21325016021728516,
                    -0.08775818347930908
                ],
                [
                    0.5120737552642822,
                    -0.07210776954889297,
                    0.3259353041648865
                ],
                [
                    0.20812340080738068,
                    -0.14363646507263184,
                    -0.22934697568416595
                ]
            ]
        ],
        [
            [
                [
                    0.07730761170387268,
                    0.7359277606010437,
                    0.03095036931335926
                ],
                [
                    0.07692735642194748,
                    0.35499364137649536,
                    -0.06745146214962006
                ],
                [
                    0.023339327424764633,
                    -0.5028504729270935,
                    -0.618833601474762
                ]
            ]
        ],
        [
            [
                [
                    0.26457253098487854,
                    -0.053860340267419815,
                    -0.24860680103302002
                ],
                [
                    -0.03156396374106407,
                    0.09608237445354462,
                    -0.009796075522899628
                ],
                [
                    -0.024854181334376335,
                    0.17700542509555817,
                    0.20316384732723236
                ]
            ]
        ],
        [
            [
                [
                    -1.2261232137680054,
                    -1.0046179294586182,
                    -1.26362943649292
                ],
                [
                    0.5786877274513245,
                    0.7027151584625244,
                    0.6135416626930237
                ],
                [
                    1.0796751976013184,
                    0.307990163564682,
                    0.21326467394828796
                ]
            ]
        ],
        [
            [
                [
                    -0.3181733787059784,
                    0.2167396992444992,
                    0.4679555296897888
                ],
                [
                    0.13151076436042786,
                    -0.19264701008796692,
                    -0.1702379733324051
                ],
                [
                    0.1468658149242401,
                    -0.30577564239501953,
                    -0.339766263961792
                ]
            ]
        ],
        [
            [
                [
                    0.7019044160842896,
                    -0.015567858703434467,
                    -0.36934950947761536
                ],
                [
                    0.24860455095767975,
                    0.14321574568748474,
                    -0.13898371160030365
                ],
                [
                    -0.5429120659828186,
                    0.6235847473144531,
                    -0.09957248717546463
                ]
            ]
        ],
        [
            [
                [
                    -0.08179956674575806,
                    -0.2438916712999344,
                    0.31691983342170715
                ],
                [
                    -0.11283470690250397,
                    -0.38318073749542236,
                    0.369100958108902
                ],
                [
                    -0.5028213858604431,
                    -0.06685982644557953,
                    0.3122447431087494
                ]
            ]
        ]
    ],
    "conv1.weight": [
        [
            [
                [
                    -0.04065607860684395,
                    0.06016908586025238,
                    0.022042999044060707
                ],
                [
                    -0.09873225539922714,
                    0.03916843235492706,
                    -0.014063400216400623
                ],
                [
                    -0.07117369025945663,
                    0.05450192466378212,
                    -0.07059889286756516
                ]
            ],
            [
                [
                    0.005429341923445463,
                    -0.034239262342453,
                    0.05271817743778229
                ],
                [
                    -0.03416759520769119,
                    0.016275424510240555,
                    0.02535179629921913
                ],
                [
                    -0.07313592731952667,
                    -0.02005707286298275,
                    -0.0678158849477768
                ]
            ],
            [
                [
                    -0.014405964873731136,
                    0.004454456269741058,
                    0.0016705348389223218
                ],
                [
                    -0.08716967701911926,
                    -0.04740656539797783,
                    -0.09222324192523956
                ],
                [
                    -0.092068612575531,
                    -0.07851874828338623,
                    0.0025862762704491615
                ]
            ],
            [
                [
                    -0.06796514987945557,
                    -0.01685524545609951,
                    -0.005629865452647209
                ],
                [
                    -0.024349775165319443,
                    -0.06954259425401688,
                    -0.05679008737206459
                ],
                [
                    -0.11003228276968002,
                    0.05089724436402321,
                    -0.037808626890182495
                ]
            ],
            [
                [
                    0.022580411285161972,
                    0.004676130134612322,
                    -0.02867852710187435
                ],
                [
                    -0.016950169578194618,
                    -0.03224262595176697,
                    -0.02640991099178791
                ],
                [
                    -0.03291776403784752,
                    -0.019716592505574226,
                    -0.016731565818190575
                ]
            ],
            [
                [
                    -0.09842514246702194,
                    -0.08729729801416397,
                    0.016393717378377914
                ],
                [
                    -0.08634041994810104,
                    -0.05074860155582428,
                    0.04185846820473671
                ],
                [
                    -0.010259212926030159,
                    -0.028053659945726395,
                    -0.08612625300884247
                ]
            ],
            [
                [
                    0.024577390402555466,
                    -0.06536535918712616,
                    -0.029322173446416855
                ],
                [
                    -0.06773480027914047,
                    -0.016505923122167587,
                    -0.004733486566692591
                ],
                [
                    0.028035085648298264,
                    0.0020439825020730495,
                    0.057823896408081055
                ]
            ],
            [
                [
                    -0.00840318389236927,
                    -0.07596556097269058,
                    -0.006836955435574055
                ],
                [
                    -0.08624833822250366,
                    -0.05136507749557495,
                    -0.01811690628528595
                ],
                [
                    -0.00685646990314126,
                    0.03677651658654213,
                    -0.05143069475889206
                ]
            ],
            [
                [
                    -0.06009693443775177,
                    0.014872238971292973,
                    -0.10233524441719055
                ],
                [
                    0.016804827377200127,
                    -0.0783417671918869,
                    -0.030795693397521973
                ],
                [
                    -0.0441494844853878,
                    -0.06243126094341278,
                    -0.016573384404182434
                ]
            ],
            [
                [
                    0.010199149139225483,
                    -0.049308665096759796,
                    -0.07055763900279999
                ],
                [
                    -0.07009736448526382,
                    -0.08948053419589996,
                    0.007469629868865013
                ],
                [
                    -0.07044189423322678,
                    -0.06806700676679611,
                    -0.06747843325138092
                ]
            ],
            [
                [
                    0.004662593360990286,
                    0.018007859587669373,
                    0.02826871909201145
                ],
                [
                    -0.008233900181949139,
                    -0.03954608365893364,
                    -0.0498758926987648
                ],
                [
                    -0.007384993601590395,
                    0.043819598853588104,
                    -0.003595598042011261
                ]
            ],
            [
                [
                    -0.06163328140974045,
                    -0.050574902445077896,
                    -0.07904642820358276
                ],
                [
                    -0.03539703041315079,
                    -0.046925779432058334,
                    -0.07068852335214615
                ],
                [
                    0.028798865154385567,
                    -0.059078581631183624,
                    -0.019294966012239456
                ]
            ],
            [
                [
                    -0.006924830377101898,
                    -0.013846413232386112,
                    -0.07346870750188828
                ],
                [
                    -0.12900899350643158,
                    0.03702465817332268,
                    -0.012004281394183636
                ],
                [
                    -0.004723547957837582,
                    -0.042330123484134674,
                    -0.000695367343723774
                ]
            ],
            [
                [
                    -0.04718905687332153,
                    -0.018463777378201485,
                    -0.06301932781934738
                ],
                [
                    -0.005329981446266174,
                    0.014238212257623672,
                    -0.019112197682261467
                ],
                [
                    -0.036676306277513504,
                    -0.06155268847942352,
                    0.03559200093150139
                ]
            ],
            [
                [
                    -0.08112102746963501,
                    -0.009493708610534668,
                    -0.029027439653873444
                ],
                [
                    -0.13404348492622375,
                    -0.026930738240480423,
                    -0.042274486273527145
                ],
                [
                    -0.08125706017017365,
                    0.004018533509224653,
                    -0.06310119479894638
                ]
            ],
            [
                [
                    -0.002270823810249567,
                    0.0060592154040932655,
                    -0.006236137822270393
                ],
                [
                    -0.02108610048890114,
                    -0.08950202167034149,
                    -0.0392451174557209
                ],
                [
                    0.003742848290130496,
                    -0.048775430768728256,
                    0.010441831313073635
                ]
            ],
            [
                [
                    0.011556603014469147,
                    -0.08381525427103043,
                    -0.007862714119255543
                ],
                [
                    -0.09763140231370926,
                    -0.031652625650167465,
                    0.0007594439084641635
                ],
                [
                    -0.1014450415968895,
                    -0.07237385213375092,
                    -0.0030008358880877495
                ]
            ],
            [
                [
                    0.025048095732927322,
                    0.05233234912157059,
                    0.03579091280698776
                ],
                [
                    -0.03396838530898094,
                    0.027478225529193878,
                    -0.046111684292554855
                ],
                [
                    -0.09172989428043365,
                    -0.07474549114704132,
                    0.06342072039842606
                ]
            ],
            [
                [
                    0.015560099855065346,
                    -0.10425152629613876,
                    0.022854533046483994
                ],
                [
                    -0.06351923197507858,
                    0.019621798768639565,
                    0.06202663853764534
                ],
                [
                    -0.06865715980529785,
                    -0.03388360142707825,
                    -0.03539861738681793
                ]
            ]
        ],
        [
            [
                [
                    0.033751554787158966,
                    0.011344981379806995,
                    -0.07241152226924896
                ],
                [
                    0.038064468652009964,
                    0.006744601298123598,
                    0.013680717907845974
                ],
                [
                    -0.07872681319713593,
                    -0.004810841754078865,
                    -0.05231057479977608
                ]
            ],
            [
                [
                    0.07023690640926361,
                    -0.04662404954433441,
                    -0.005873014684766531
                ],
                [
                    0.006962773855775595,
                    -0.000931365939322859,
                    -0.059432387351989746
                ],
                [
                    0.026723207905888557,
                    -0.08173736184835434,
                    -0.014544102363288403
                ]
            ],
            [
                [
                    -0.15757031738758087,
                    -0.14986123144626617,
                    -0.0989210233092308
                ],
                [
                    -0.06095591560006142,
                    -0.03948060795664787,
                    0.02194184809923172
                ],
                [
                    -0.04518424719572067,
                    -0.14124178886413574,
                    -0.0972236692905426
                ]
            ],
            [
                [
                    -0.01926754228770733,
                    -0.08560483157634735,
                    0.0049583627842366695
                ],
                [
                    -0.09725041687488556,
                    -0.06860818713903427,
                    -0.11751099675893784
                ],
                [
                    -0.0603865347802639,
                    0.03515513241291046,
                    0.023046139627695084
                ]
            ],
            [
                [
                    -0.0018030257197096944,
                    0.014999368228018284,
                    0.02989542856812477
                ],
                [
                    -0.09575752168893814,
                    -0.016530221328139305,
                    0.028726065531373024
                ],
                [
                    -0.03461490944027901,
                    0.027436114847660065,
                    0.0007475309539586306
                ]
            ],
            [
                [
                    -0.025081494823098183,
                    -0.08931972831487656,
                    0.0018504594918340445
                ],
                [
                    -0.07309228181838989,
                    -0.08364768326282501,
                    -0.08634626120328903
                ],
                [
                    -0.11855664104223251,
                    -0.11531468480825424,
                    0.011081717908382416
                ]
            ],
            [
                [
                    0.02776365540921688,
                    -0.04091949015855789,
                    -0.08020193874835968
                ],
                [
                    0.02012384496629238,
                    0.01689697429537773,
                    -0.03094983659684658
                ],
                [
                    -0.07464195787906647,
                    0.040712758898735046,
                    -0.001507508335635066
                ]
            ],
            [
                [
                    -0.12839442491531372,
                    0.022483307868242264,
                    0.028462780639529228
                ],
                [
                    -0.10398095846176147,
                    -0.00967438891530037,
                    -0.07994457334280014
                ],
                [
                    -0.08674012124538422,
                    0.017756234854459763,
                    -0.030145607888698578
                ]
            ],
            [
                [
                    -0.10743922740221024,
                    -0.08040245622396469,
                    -0.0629294365644455
                ],
                [
                    -0.07426367700099945,
                    -0.04877224564552307,
                    0.02491033263504505
                ],
                [
                    -0.05293533205986023,
                    -0.09585226327180862,
                    -0.03840917348861694
                ]
            ],
            [
                [
                    -0.019376378506422043,
                    -0.005085901822894812,
                    -0.11289198696613312
                ],
                [
                    -0.07815665751695633,
                    -0.0984770804643631,
                    -0.07885328680276871
                ],
                [
                    -0.03554613143205643,
                    -0.09243688732385635,
                    -0.01366384793072939
                ]
            ],
            [
                [
                    0.041654106229543686,
                    -0.02853848971426487,
                    -0.08167582005262375
                ],
                [
                    -0.06360550969839096,
                    -0.017549743875861168,
                    -0.08929955214262009
                ],
                [
                    0.0020420716609805822,
                    -0.10122783482074738,
                    -0.10244499891996384
                ]
            ],
            [
                [
                    -0.10040216892957687,
                    -0.058849506080150604,
                    0.005436636041849852
                ],
                [
                    -0.10945483297109604,
                    0.020835716277360916,
                    -0.07508675009012222
                ],
                [
                    -0.019037609919905663,
                    -0.03165317699313164,
                    -0.10961466282606125
                ]
            ],
            [
                [
                    0.03935382515192032,
                    0.004239898640662432,
                    0.04264302924275398
                ],
                [
                    0.004460878670215607,
                    -0.08514707535505295,
                    0.029879985377192497
                ],
                [
                    -0.027654293924570084,
                    0.0027957165148109198,
                    -0.09370742738246918
                ]
            ],
            [
                [
                    -0.05216089263558388,
                    -0.10876300930976868,
                    -0.06106037274003029
                ],
                [
                    -0.02060919813811779,
                    -0.09370466321706772,
                    -0.008566669188439846
                ],
                [
                    0.008788250386714935,
                    -0.021088190376758575,
                    -0.08187032490968704
                ]
            ],
            [
                [
                    -0.1456250250339508,
                    -0.05939093604683876,
                    0.001848314655944705
                ],
                [
                    -0.04382207617163658,
                    0.0053165378049016,
                    -0.037743642926216125
                ],
                [
                    -0.05968739464879036,
                    -0.11082344502210617,
                    -0.09379991888999939
                ]
            ],
            [
                [
                    0.002835553139448166,
                    -0.07013606280088425,
                    0.013075437396764755
                ],
                [
                    -0.11440885066986084,
                    -0.06410007178783417,
                    -0.08785265684127808
                ],
                [
                    -0.007232524920254946,
                    -0.03619169816374779,
                    0.03557527810335159
                ]
            ],
            [
                [
                    -0.04161999002099037,
                    -0.0016530993161723018,
                    -0.03996581584215164
                ],
                [
                    -0.1690508872270584,
                    -0.06024901941418648,
                    -0.02815796434879303
                ],
                [
                    -0.053196150809526443,
                    -0.09265812486410141,
                    0.028298864141106606
                ]
            ],
            [
                [
                    -0.0315498486161232,
                    -0.09196140617132187,
                    -0.0764775425195694
                ],
                [
                    0.04210356995463371,
                    0.039933834224939346,
                    -0.10488110780715942
                ],
                [
                    0.03025491163134575,
                    0.011331064626574516,
                    0.011924633756279945
                ]
            ],
            [
                [
                    -0.11400783807039261,
                    -0.08856622874736786,
                    -0.014813516288995743
                ],
                [
                    -0.20910108089447021,
                    -0.07305730134248734,
                    -0.011115394532680511
                ],
                [
                    -0.1829635351896286,
                    -0.002083222381770611,
                    -0.05740095302462578
                ]
            ]
        ],
        [
            [
                [
                    0.0020127862226217985,
                    0.006510711740702391,
                    -0.09067749232053757
                ],
                [
                    -0.14993928372859955,
                    -0.07745867967605591,
                    0.003646724158897996
                ],
                [
                    -0.1385500282049179,
                    -0.05424629524350166,
                    0.05570007860660553
                ]
            ],
            [
                [
                    -0.10644753277301788,
                    -0.19893349707126617,
                    0.09321355074644089
                ],
                [
                    -0.16434797644615173,
                    -0.07810670137405396,
                    0.09125364571809769
                ],
                [
                    -0.06092923507094383,
                    -0.08478644490242004,
                    0.10696151852607727
                ]
            ],
            [
                [
                    0.43718788027763367,
                    0.05149552971124649,
                    -0.49264025688171387
                ],
                [
                    -0.1055866926908493,
                    -0.005007725674659014,
                    -0.23660194873809814
                ],
                [
                    -0.3691316843032837,
                    -0.13789843022823334,
                    0.12815716862678528
                ]
            ],
            [
                [
                    0.13204334676265717,
                    0.040460169315338135,
                    0.04066704958677292
                ],
                [
                    0.18075205385684967,
                    0.16186323761940002,
                    0.06016473472118378
                ],
                [
                    0.12443578243255615,
                    0.3629262447357178,
                    -0.0966087281703949
                ]
            ],
            [
                [
                    -0.05172199383378029,
                    -0.12031156569719315,
                    0.023227715864777565
                ],
                [
                    -0.09251058101654053,
                    0.13123711943626404,
                    -0.03489975258708
                ],
                [
                    -0.24529744684696198,
                    0.2830226719379425,
                    -0.09631609916687012
                ]
            ],
            [
                [
                    0.11480794101953506,
                    0.15861551463603973,
                    -0.16615504026412964
                ],
                [
                    -0.10149535536766052,
                    0.0800185576081276,
                    0.056946441531181335
                ],
                [
                    -0.19477759301662445,
                    0.06034812331199646,
                    0.12868641316890717
                ]
            ],
            [
                [
                    -0.11080831289291382,
                    -0.0334356315433979,
                    -0.0634772926568985
                ],
                [
                    -0.127462700009346,
                    -0.026678957045078278,
                    -0.11604159325361252
                ],
                [
                    -0.1899564415216446,
                    0.02672700397670269,
                    0.021726999431848526
                ]
            ],
            [
                [
                    0.1809414029121399,
                    0.0209982767701149,
                    -0.1057858020067215
                ],
                [
                    0.1747496873140335,
                    0.014948573894798756,
                    -0.12879368662834167
                ],
                [
                    -0.05642809718847275,
                    -0.012936082668602467,
                    0.06669151782989502
                ]
            ],
            [
                [
                    -0.06321828067302704,
                    0.02935187704861164,
                    0.04402128979563713
                ],
                [
                    0.11542179435491562,
                    0.23759761452674866,
                    -0.05982392653822899
                ],
                [
                    -0.08759459853172302,
                    0.1154119223356247,
                    0.09194470942020416
                ]
            ],
            [
                [
                    -0.06416217237710953,
                    -0.2523549497127533,
                    -0.23752014338970184
                ],
                [
                    -0.1637953817844391,
                    -0.19929417967796326,
                    -0.06092333048582077
                ],
                [
                    -0.25658348202705383,
                    -0.1641189306974411,
                    -0.04581550508737564
                ]
            ],
            [
                [
                    0.10298936069011688,
                    -0.048676278442144394,
                    -0.129059836268425
                ],
                [
                    0.012768590822815895,
                    -0.016960853710770607,
                    -0.1264069527387619
                ],
                [
                    -0.10546033829450607,
                    2.166389640478883e-05,
                    -0.09458742290735245
                ]
            ],
            [
                [
                    0.029990607872605324,
                    -0.002175662200897932,
                    0.026534846052527428
                ],
                [
                    0.11536796391010284,
                    0.13046319782733917,
                    0.027089960873126984
                ],
                [
                    0.11057125777006149,
                    0.18854579329490662,
                    0.017302922904491425
                ]
            ],
            [
                [
                    0.44056573510169983,
                    0.05235162749886513,
                    -0.2671835422515869
                ],
                [
                    0.2020980715751648,
                    -0.08807063847780228,
                    -0.07761579006910324
                ],
                [
                    0.0366213321685791,
                    -0.17006254196166992,
                    -0.009333796799182892
                ]
            ],
            [
                [
                    0.09323860704898834,
                    0.10631266236305237,
                    0.015644192695617676
                ],
                [
                    0.05630015954375267,
                    0.16117651760578156,
                    -0.015983562916517258
                ],
                [
                    -0.059028953313827515,
                    0.05631908029317856,
                    0.006510760169476271
                ]
            ],
            [
                [
                    0.15471263229846954,
                    -0.086922287940979,
                    -0.06257924437522888
                ],
                [
                    0.009227271191775799,
                    -0.03669317439198494,
                    -0.09259306639432907
                ],
                [
                    -0.02303500659763813,
                    -0.10053938627243042,
                    0.0460391566157341
                ]
            ],
            [
                [
                    -0.346823126077652,
                    -0.08841478824615479,
                    0.038943566381931305
                ],
                [
                    -0.4177775979042053,
                    -0.15011531114578247,
                    0.09584097564220428
                ],
                [
                    -0.3691747188568115,
                    -0.28854846954345703,
                    0.16517756879329681
                ]
            ],
            [
                [
                    0.4475291967391968,
                    -0.21570448577404022,
                    0.00590330408886075
                ],
                [
                    0.07424220442771912,
                    -0.13645261526107788,
                    0.0064300368539988995
                ],
                [
                    -0.27074557542800903,
                    0.02662375010550022,
                    0.00813470408320427
                ]
            ],
            [
                [
                    -0.09048739075660706,
                    -0.044190067797899246,
                    -0.18743813037872314
                ],
                [
                    -0.0402049720287323,
                    -0.13995012640953064,
                    -0.15026326477527618
                ],
                [
                    -0.04907895624637604,
                    0.026717571541666985,
                    -0.0026310302782803774
                ]
            ],
            [
                [
                    0.9005442261695862,
                    -0.8370099067687988,
                    0.18426789343357086
                ],
                [
                    0.3613293468952179,
                    -0.6097202301025391,
                    0.22228585183620453
                ],
                [
                    -0.5001376271247864,
                    -0.007626393809914589,
                    0.052747927606105804
                ]
            ]
        ],
        [
            [
                [
                    -0.0419217050075531,
                    -0.058439236134290695,
                    -0.07463353127241135
                ],
                [
                    -0.12692026793956757,
                    -0.04722612723708153,
                    -0.04045954719185829
                ],
                [
                    0.011420441791415215,
                    -0.10180406272411346,
                    0.02791629172861576
                ]
            ],
            [
                [
                    -0.10784582048654556,
                    -0.31733959913253784,
                    -0.14423929154872894
                ],
                [
                    -0.10587460547685623,
                    -0.34883758425712585,
                    -0.04159476235508919
                ],
                [
                    -0.13642136752605438,
                    -0.3441585600376129,
                    -0.017145758494734764
                ]
            ],
            [
                [
                    -0.18914130330085754,
                    -0.46929222345352173,
                    -0.2571280896663666
                ],
                [
                    -0.20330077409744263,
                    -0.3658282160758972,
                    -0.12237010896205902
                ],
                [
                    -0.29639002680778503,
                    -0.09096067398786545,
                    -0.1426502764225006
                ]
            ],
            [
                [
                    -0.21368224918842316,
                    -0.28024759888648987,
                    -0.3203471004962921
                ],
                [
                    -0.07491474598646164,
                    -0.30155089497566223,
                    -0.19632284343242645
                ],
                [
                    -0.1360444873571396,
                    -0.2655359208583832,
                    -0.044540610164403915
                ]
            ],
            [
                [
                    -0.018689673393964767,
                    -0.1645534336566925,
                    -0.10347628593444824
                ],
                [
                    -0.12864667177200317,
                    -0.32119226455688477,
                    -0.06359120458364487
                ],
                [
                    -0.016408342868089676,
                    -0.3608832359313965,
                    -0.060346584767103195
                ]
            ],
            [
                [
                    -0.15412433445453644,
                    -0.15021544694900513,
                    -0.09664886444807053
                ],
                [
                    -0.1497209668159485,
                    -0.09355032444000244,
                    -0.1681193858385086
                ],
                [
                    -0.13384227454662323,
                    -0.014645816758275032,
                    -0.16413214802742004
                ]
            ],
            [
                [
                    -0.043896280229091644,
                    -0.2280377745628357,
                    -0.1909617930650711
                ],
                [
                    -0.04216090589761734,
                    -0.10073042660951614,
                    -0.1392858773469925
                ],
                [
                    0.01869945414364338,
                    -0.09418780356645584,
                    0.03331894427537918
                ]
            ],
            [
                [
                    -0.13431444764137268,
                    -0.1879415214061737,
                    -0.1595623642206192
                ],
                [
                    -0.14469927549362183,
                    -0.14497846364974976,
                    -0.002602585591375828
                ],
                [
                    -0.045518673956394196,
                    -0.052536822855472565,
                    -0.0036055773962289095
                ]
            ],
            [
                [
                    -0.12952746450901031,
                    -0.07216423004865646,
                    -0.15659120678901672
                ],
                [
                    -0.17652688920497894,
                    -0.21162566542625427,
                    -0.09222964197397232
                ],
                [
                    -0.1918383240699768,
                    -0.12131361663341522,
                    -0.06359104812145233
                ]
            ],
            [
                [
                    -0.18945877254009247,
                    -0.27795520424842834,
                    -0.14974869787693024
                ],
                [
                    -0.15516547858715057,
                    -0.22418177127838135,
                    -0.1596488356590271
                ],
                [
                    -0.1136213019490242,
                    -0.1085600033402443,
                    0.02394457533955574
                ]
            ],
            [
                [
                    -0.03747283294796944,
                    -0.1341068595647812,
                    -0.004798776935786009
                ],
                [
                    -0.12344685196876526,
                    -0.030530942603945732,
                    -0.124636709690094
                ],
                [
                    -0.14040474593639374,
                    -0.03895459696650505,
                    0.017506424337625504
                ]
            ],
            [
                [
                    -0.006306143943220377,
                    -0.043920185416936874,
                    -0.08793122321367264
                ],
                [
                    -0.05902176722884178,
                    -0.08476214855909348,
                    0.009300044737756252
                ],
                [
                    -0.02909109927713871,
                    -0.02708549052476883,
                    0.10134746134281158
                ]
            ],
            [
                [
                    -0.043078020215034485,
                    -0.09795910120010376,
                    -0.13756318390369415
                ],
                [
                    -0.12459209561347961,
                    -0.20071162283420563,
                    -0.07909140735864639
                ],
                [
                    -0.10706102848052979,
                    -0.1532004475593567,
                    0.07955793291330338
                ]
            ],
            [
                [
                    -0.07661058753728867,
                    -0.04286247864365578,
                    -0.10453970730304718
                ],
                [
                    -0.035424571484327316,
                    -0.02417919598519802,
                    0.024499259889125824
                ],
                [
                    -0.07783527672290802,
                    -0.025716401636600494,
                    -0.00323203532025218
                ]
            ],
            [
                [
                    -0.12982243299484253,
                    -0.03218620643019676,
                    -0.006157846190035343
                ],
                [
                    -0.17210237681865692,
                    0.017904454842209816,
                    0.04615052044391632
                ],
                [
                    -0.13130301237106323,
                    0.061733048409223557,
                    0.08301974833011627
                ]
            ],
            [
                [
                    -0.12399999797344208,
                    -0.03562610223889351,
                    -0.1406862735748291
                ],
                [
                    -0.13735269010066986,
                    0.0320754274725914,
                    -0.09457115083932877
                ],
                [
                    -0.203579843044281,
                    -0.01309086661785841,
                    -0.12245885282754898
                ]
            ],
            [
                [
                    -0.0827459767460823,
                    0.016431080177426338,
                    -0.008542199619114399
                ],
                [
                    -0.19188542664051056,
                    -0.05664058402180672,
                    0.03313665837049484
                ],
                [
                    -0.25381186604499817,
                    -0.09687230736017227,
                    0.19041185081005096
                ]
            ],
            [
                [
                    -0.13113251328468323,
                    -0.21727491915225983,
                    -0.08700615167617798
                ],
                [
                    -0.10018052905797958,
                    -0.11614199727773666,
                    -0.1092449501156807
                ],
                [
                    -0.014070184901356697,
                    -0.08820688724517822,
                    -0.06448695808649063
                ]
            ],
            [
                [
                    -0.14565780758857727,
                    -0.4069199860095978,
                    -0.14949925243854523
                ],
                [
                    -0.20623254776000977,
                    -0.546422004699707,
                    -0.048518698662519455
                ],
                [
                    -0.3113558888435364,
                    -0.6250742077827454,
                    -0.1181376725435257
                ]
            ]
        ],
        [
            [
                [
                    -0.1671183854341507,
                    -0.06076297536492348,
                    -0.01835867576301098
                ],
                [
                    -0.09269528836011887,
                    -0.165533185005188,
                    0.035018764436244965
                ],
                [
                    -0.004870540928095579,
                    -0.02607073076069355,
                    -0.05835879221558571
                ]
            ],
            [
                [
                    -0.028870293870568275,
                    -0.06165400892496109,
                    0.015462473966181278
                ],
                [
                    0.1645679622888565,
                    -0.06969021260738373,
                    0.02656671404838562
                ],
                [
                    0.2078501284122467,
                    -0.03537070006132126,
                    -0.08078059554100037
                ]
            ],
            [
                [
                    0.10721764713525772,
                    0.04174032434821129,
                    0.029548238962888718
                ],
                [
                    -0.1642254739999771,
                    0.10732553899288177,
                    -0.03956678882241249
                ],
                [
                    -0.17641252279281616,
                    -0.09787596017122269,
                    -0.13526783883571625
                ]
            ],
            [
                [
                    -0.2500178813934326,
                    -0.03688443452119827,
                    -0.027005884796380997
                ],
                [
                    0.08446141332387924,
                    -0.0567236989736557,
                    -0.13741940259933472
                ],
                [
                    0.035294387489557266,
                    0.05920349806547165,
                    -0.11058567464351654
                ]
            ],
            [
                [
                    0.32639554142951965,
                    -0.09215420484542847,
                    0.03539004921913147
                ],
                [
                    -0.0291384719312191,
                    0.021601013839244843,
                    -0.04042784497141838
                ],
                [
                    -0.3642141819000244,
                    0.09379084408283234,
                    0.04852587729692459
                ]
            ],
            [
                [
                    -0.006823842413723469,
                    0.11468800902366638,
                    0.09341969341039658
                ],
                [
                    -0.006906229071319103,
                    0.08621235936880112,
                    0.0077613648027181625
                ],
                [
                    -0.03716685622930527,
                    -0.018274061381816864,
                    -0.033447906374931335
                ]
            ],
            [
                [
                    0.00765406945720315,
                    -0.09333325922489166,
                    -0.0037449791561812162
                ],
                [
                    -0.0041236490942537785,
                    -0.10735798627138138,
                    0.030892809852957726
                ],
                [
                    0.008740697056055069,
                    -0.1015172004699707,
                    -0.10017110407352448
                ]
            ],
            [
                [
                    -0.017994431778788567,
                    0.01666293293237686,
                    0.05662425979971886
                ],
                [
                    -0.18509793281555176,
                    -0.06216409057378769,
                    0.059788793325424194
                ],
                [
                    -0.014140770770609379,
                    -0.048814062029123306,
                    -0.0030685269739478827
                ]
            ],
            [
                [
                    -0.13967040181159973,
                    -0.13380664587020874,
                    0.05219532549381256
                ],
                [
                    -0.14674463868141174,
                    -0.14674995839595795,
                    0.00919710099697113
                ],
                [
                    -0.23188285529613495,
                    0.059395354241132736,
                    0.09207623451948166
                ]
            ],
            [
                [
                    0.01782442070543766,
                    -0.3883630335330963,
                    0.02800232172012329
                ],
                [
                    -0.23208191990852356,
                    -0.28084492683410645,
                    -0.08573124557733536
                ],
                [
                    -0.21383802592754364,
                    -0.14012183248996735,
                    -0.1078990176320076
                ]
            ],
            [
                [
                    0.01763112284243107,
                    -0.10628589987754822,
                    -0.08999522775411606
                ],
                [
                    0.006008571945130825,
                    -0.0281989648938179,
                    -0.04523814842104912
                ],
                [
                    -0.10295834392309189,
                    -0.04839140549302101,
                    -0.07887250930070877
                ]
            ],
            [
                [
                    -0.09179938584566116,
                    -0.05663682892918587,
                    -0.0010396825382485986
                ],
                [
                    -0.1208062618970871,
                    -0.036800894886255264,
                    0.0030124452896416187
                ],
                [
                    -0.09517005831003189,
                    0.05249479040503502,
                    0.05107836425304413
                ]
            ],
            [
                [
                    -0.03176261857151985,
                    -0.13912716507911682,
                    -0.032014280557632446
                ],
                [
                    0.04018526151776314,
                    -0.09608934819698334,
                    -0.03853623941540718
                ],
                [
                    -0.045802172273397446,
                    -0.001018049893900752,
                    -0.0795925110578537
                ]
            ],
            [
                [
                    0.012633112259209156,
                    -0.003281946061179042,
                    -0.03746812790632248
                ],
                [
                    -0.09235318005084991,
                    0.03478612005710602,
                    0.09650329500436783
                ],
                [
                    -0.18194575607776642,
                    0.07223879545927048,
                    -0.016284435987472534
                ]
            ],
            [
                [
                    0.01351363118737936,
                    0.014258223585784435,
                    -0.07112471759319305
                ],
                [
                    0.07778909802436829,
                    -0.06913767009973526,
                    -0.08589281141757965
                ],
                [
                    0.05856300890445709,
                    -0.05755629017949104,
                    0.010338661260902882
                ]
            ],
            [
                [
                    -0.1663055568933487,
                    0.05580743029713631,
                    0.05553518235683441
                ],
                [
                    -0.07412082701921463,
                    -0.015668287873268127,
                    0.0007374881533905864
                ],
                [
                    0.14974071085453033,
                    -0.08832745999097824,
                    -0.026308966800570488
                ]
            ],
            [
                [
                    0.11642247438430786,
                    -0.09923114627599716,
                    -0.13796713948249817
                ],
                [
                    0.2520540952682495,
                    -0.1453649401664734,
                    -0.0928225889801979
                ],
                [
                    0.056364335119724274,
                    -0.13041944801807404,
                    -0.12147902697324753
                ]
            ],
            [
                [
                    0.017398914322257042,
                    -0.16711311042308807,
                    -0.01632610894739628
                ],
                [
                    -0.07659421861171722,
                    -0.10697000473737717,
                    -0.07684950530529022
                ],
                [
                    -0.11757785826921463,
                    -0.04075789079070091,
                    0.035831477493047714
                ]
            ],
            [
                [
                    -0.012512101791799068,
                    -0.2900145351886749,
                    -0.12713120877742767
                ],
                [
                    0.762126624584198,
                    -0.31493064761161804,
                    -0.21330046653747559
                ],
                [
                    0.06633114069700241,
                    -0.24996516108512878,
                    -0.17628861963748932
                ]
            ]
        ],
        [
            [
                [
                    -0.07395296543836594,
                    -0.05013256147503853,
                    -0.009670916944742203
                ],
                [
                    0.0258319191634655,
                    0.012401237152516842,
                    -0.023193983361124992
                ],
                [
                    -0.03405977413058281,
                    0.07488344609737396,
                    -0.018687276169657707
                ]
            ],
            [
                [
                    -0.04095834493637085,
                    -0.012347663752734661,
                    -0.028410669416189194
                ],
                [
                    -0.09879613667726517,
                    0.23043154180049896,
                    -0.05710557848215103
                ],
                [
                    0.033397186547517776,
                    0.06730284541845322,
                    -0.01715121977031231
                ]
            ],
            [
                [
                    -0.010533606633543968,
                    -0.018401380628347397,
                    0.051257263869047165
                ],
                [
                    -0.013432378880679607,
                    -0.2574603259563446,
                    0.034289900213479996
                ],
                [
                    -0.069492407143116,
                    -0.04190343618392944,
                    0.016299240291118622
                ]
            ],
            [
                [
                    -0.02074054442346096,
                    -0.09477276355028152,
                    -0.0341365672647953
                ],
                [
                    0.018702732399106026,
                    0.16600872576236725,
                    0.029195468872785568
                ],
                [
                    -0.07410357147455215,
                    0.08103902637958527,
                    0.06274326145648956
                ]
            ],
            [
                [
                    0.022520624101161957,
                    0.24056361615657806,
                    -0.018207402899861336
                ],
                [
                    -0.04450858384370804,
                    0.06732112914323807,
                    0.025652732700109482
                ],
                [
                    0.0312674418091774,
                    -0.09363666921854019,
                    0.06622225791215897
                ]
            ],
            [
                [
                    -0.031100617721676826,
                    0.03264535963535309,
                    -0.03292505815625191
                ],
                [
                    0.056234221905469894,
                    -0.06769969314336777,
                    -0.09072175621986389
                ],
                [
                    -0.04425482079386711,
                    0.10806728154420853,
                    -0.031753960996866226
                ]
            ],
            [
                [
                    -0.01785919815301895,
                    -0.1292269229888916,
                    0.025338638573884964
                ],
                [
                    -0.039228640496730804,
                    -0.012193822301924229,
                    0.029300766065716743
                ],
                [
                    0.0013074236921966076,
                    0.03726348653435707,
                    -0.019091004505753517
                ]
            ],
            [
                [
                    -0.06459316611289978,
                    -0.0768854096531868,
                    0.08771363645792007
                ],
                [
                    -0.04539356008172035,
                    0.019462723284959793,
                    -0.04045218601822853
                ],
                [
                    -0.034274373203516006,
                    0.04198475554585457,
                    -0.09208350628614426
                ]
            ],
            [
                [
                    -0.01891874521970749,
                    0.0064647323451936245,
                    0.013904488645493984
                ],
                [
                    -0.021899225190281868,
                    0.04764567315578461,
                    0.11972817778587341
                ],
                [
                    -0.05547945573925972,
                    -0.07244177907705307,
                    -0.05234629660844803
                ]
            ],
            [
                [
                    -0.09310892969369888,
                    -0.08892078697681427,
                    0.03913433104753494
                ],
                [
                    -0.06260557472705841,
                    -0.1599225401878357,
                    -0.041252199560403824
                ],
                [
                    -0.003409968689084053,
                    0.041087836027145386,
                    -0.08202531933784485
                ]
            ],
            [
                [
                    -0.004380650818347931,
                    -0.06504937261343002,
                    -0.056705690920352936
                ],
                [
                    -0.03855525329709053,
                    -0.027031272649765015,
                    -0.05250616744160652
                ],
                [
                    -0.05750935897231102,
                    -0.048235587775707245,
                    -0.08338827639818192
                ]
            ],
            [
                [
                    -0.03445335105061531,
                    -0.07767844200134277,
                    -0.05752279981970787
                ],
                [
                    0.015422928147017956,
                    0.034146152436733246,
                    -0.0638699159026146
                ],
                [
                    0.022993329912424088,
                    0.09029122442007065,
                    0.08842200040817261
                ]
            ],
            [
                [
                    -0.05530444160103798,
                    -0.08572429418563843,
                    0.03293329104781151
                ],
                [
                    -0.026105238124728203,
                    0.047886256128549576,
                    -0.09247062355279922
                ],
                [
                    -0.02839886024594307,
                    0.04544168710708618,
                    -0.05558992549777031
                ]
            ],
            [
                [
                    -0.05424995720386505,
                    0.03322356566786766,
                    -0.05841286480426788
                ],
                [
                    0.011561308056116104,
                    -0.04730522260069847,
                    0.05190910026431084
                ],
                [
                    -0.07301212102174759,
                    0.03390851244330406,
                    -0.06934386491775513
                ]
            ],
            [
                [
                    -0.1327562928199768,
                    -0.014026966877281666,
                    0.06051883101463318
                ],
                [
                    -0.10975448042154312,
                    -0.0500173419713974,
                    0.05683870241045952
                ],
                [
                    -0.056636273860931396,
                    0.011548529379069805,
                    -0.09400708228349686
                ]
            ],
            [
                [
                    -0.04563112556934357,
                    -0.13342386484146118,
                    0.06113746017217636
                ],
                [
                    0.012335499748587608,
                    0.02574741467833519,
                    -0.029371263459324837
                ],
                [
                    -0.01425048429518938,
                    0.12848395109176636,
                    -0.08248351514339447
                ]
            ],
            [
                [
                    -0.11365275084972382,
                    0.18675421178340912,
                    -0.07560675591230392
                ],
                [
                    -0.10399901121854782,
                    0.0907205268740654,
                    -0.004854094237089157
                ],
                [
                    -0.03101283684372902,
                    -0.03965248167514801,
                    -0.006055894307792187
                ]
            ],
            [
                [
                    -0.06771843135356903,
                    -0.06175707280635834,
                    -0.016287395730614662
                ],
                [
                    0.0444786436855793,
                    -0.14915026724338531,
                    -0.05808434262871742
                ],
                [
                    -0.07765238732099533,
                    -0.011803995817899704,
                    0.0443863719701767
                ]
            ],
            [
                [
                    -0.055048372596502304,
                    0.32711708545684814,
                    -0.10493743419647217
                ],
                [
                    -0.053638242185115814,
                    0.4194653630256653,
                    0.11338789016008377
                ],
                [
                    -0.12752845883369446,
                    -0.08456318825483322,
                    0.2307826280593872
                ]
            ]
        ],
        [
            [
                [
                    -0.018480084836483,
                    0.010409022681415081,
                    -0.011579076759517193
                ],
                [
                    0.0226167980581522,
                    0.009090958163142204,
                    0.05690423771739006
                ],
                [
                    -0.10038327425718307,
                    -0.15102939307689667,
                    -0.0784420520067215
                ]
            ],
            [
                [
                    -0.10135956108570099,
                    0.09205454587936401,
                    -0.07663892954587936
                ],
                [
                    -0.06933323293924332,
                    0.01094288844615221,
                    -0.12075582891702652
                ],
                [
                    -0.022397959604859352,
                    -0.018188362941145897,
                    -0.15898996591567993
                ]
            ],
            [
                [
                    -0.050455547869205475,
                    0.02723744511604309,
                    0.17849141359329224
                ],
                [
                    -0.11222897469997406,
                    -0.06408222764730453,
                    0.2383231371641159
                ],
                [
                    0.019862597808241844,
                    -0.26482707262039185,
                    0.1495862752199173
                ]
            ],
            [
                [
                    -0.015668395906686783,
                    0.03501153364777565,
                    -0.24491633474826813
                ],
                [
                    0.07054442167282104,
                    0.13781647384166718,
                    -0.18312688171863556
                ],
                [
                    0.053717534989118576,
                    0.23374244570732117,
                    -0.10190629959106445
                ]
            ],
            [
                [
                    0.10444357246160507,
                    0.21053911745548248,
                    -0.04083304479718208
                ],
                [
                    0.0896327793598175,
                    0.20726999640464783,
                    0.11957880109548569
                ],
                [
                    -0.08054544031620026,
                    0.05730961263179779,
                    0.13866882026195526
                ]
            ],
            [
                [
                    -0.04180702939629555,
                    -0.15251025557518005,
                    -1.0308222954336088e-05
                ],
                [
                    -0.15144366025924683,
                    -0.1512630730867386,
                    0.031054740771651268
                ],
                [
                    0.034976232796907425,
                    -0.1284588873386383,
                    0.09415028989315033
                ]
            ],
            [
                [
                    0.1823112666606903,
                    0.09760457277297974,
                    -0.08423691987991333
                ],
                [
                    0.12039253115653992,
                    0.07282298058271408,
                    0.03558509424328804
                ],
                [
                    -0.05894921347498894,
                    0.05019206926226616,
                    0.03692851960659027
                ]
            ],
            [
                [
                    -0.06009099632501602,
                    -0.042603228241205215,
                    0.08261208981275558
                ],
                [
                    -0.1085730493068695,
                    -0.06177584081888199,
                    0.043047916144132614
                ],
                [
                    -0.03628144785761833,
                    -0.03320116922259331,
                    0.04147261008620262
                ]
            ],
            [
                [
                    0.254201740026474,
                    0.11949558556079865,
                    0.16775226593017578
                ],
                [
                    0.003805707208812237,
                    0.05313187092542648,
                    0.126201331615448
                ],
                [
                    -0.027663974091410637,
                    0.08697855472564697,
                    0.19363349676132202
                ]
            ],
            [
                [
                    0.1760183721780777,
                    0.0375741645693779,
                    -0.06261970102787018
                ],
                [
                    0.05652008205652237,
                    -0.044678982347249985,
                    -0.0028491481207311153
                ],
                [
                    -0.011171155609190464,
                    -0.15264089405536652,
                    -0.06332644820213318
                ]
            ],
            [
                [
                    0.10347314178943634,
                    0.011055722832679749,
                    -0.06206595525145531
                ],
                [
                    0.0337660051882267,
                    0.055975642055273056,
                    -0.02628285437822342
                ],
                [
                    -0.07328491657972336,
                    -0.06640629470348358,
                    -0.06777708232402802
                ]
            ],
            [
                [
                    0.10853908210992813,
                    -0.003741305321455002,
                    0.08298622816801071
                ],
                [
                    0.007035515271127224,
                    0.055992916226387024,
                    0.04578809067606926
                ],
                [
                    0.0681556761264801,
                    0.1401698738336563,
                    0.124944768846035
                ]
            ],
            [
                [
                    0.14214465022087097,
                    0.022699076682329178,
                    -0.02312602289021015
                ],
                [
                    -0.04451151192188263,
                    0.03279237076640129,
                    0.08888587355613708
                ],
                [
                    -0.035766374319791794,
                    0.02423609420657158,
                    -0.08498918265104294
                ]
            ],
            [
                [
                    0.1762595772743225,
                    0.13558603823184967,
                    -0.020083149895071983
                ],
                [
                    0.03943146765232086,
                    0.12778061628341675,
                    0.07950998097658157
                ],
                [
                    0.056251902133226395,
                    0.06011489778757095,
                    0.05354703590273857
                ]
            ],
            [
                [
                    -0.03310108184814453,
                    0.1351885199546814,
                    0.08720002323389053
                ],
                [
                    -0.008855379186570644,
                    0.13980495929718018,
                    0.003772222436964512
                ],
                [
                    -0.04158948361873627,
                    0.10178346931934357,
                    -0.048826657235622406
                ]
            ],
            [
                [
                    0.09329848736524582,
                    0.08106353133916855,
                    0.03890053927898407
                ],
                [
                    0.03877374529838562,
                    0.08491324633359909,
                    0.02991156466305256
                ],
                [
                    0.07370587438344955,
                    0.03074566088616848,
                    -0.039324820041656494
                ]
            ],
            [
                [
                    0.04202335700392723,
                    0.26845940947532654,
                    0.059862732887268066
                ],
                [
                    -0.07318926602602005,
                    0.2757812440395355,
                    0.07665929198265076
                ],
                [
                    -0.15457338094711304,
                    0.2791321575641632,
                    0.09750201553106308
                ]
            ],
            [
                [
                    0.12787781655788422,
                    0.1454646736383438,
                    0.10981154441833496
                ],
                [
                    0.19318436086177826,
                    0.021265117451548576,
                    0.09524200111627579
                ],
                [
                    0.025374596938490868,
                    -0.0651746466755867,
                    0.04611474275588989
                ]
            ],
            [
                [
                    -0.1784871220588684,
                    0.27247855067253113,
                    0.07694607973098755
                ],
                [
                    -0.3155260980129242,
                    0.3864961862564087,
                    0.052752602845430374
                ],
                [
                    -0.24785751104354858,
                    0.30263689160346985,
                    -0.00651294132694602
                ]
            ]
        ],
        [
            [
                [
                    -0.1037115678191185,
                    -0.0009849523194134235,
                    -0.03282136097550392
                ],
                [
                    0.014232369139790535,
                    -0.16621379554271698,
                    0.052532345056533813
                ],
                [
                    -0.028048399835824966,
                    -0.05938689038157463,
                    0.03642674535512924
                ]
            ],
            [
                [
                    -0.057913295924663544,
                    -0.06668078899383545,
                    0.04409433901309967
                ],
                [
                    0.06313933432102203,
                    -0.11135531961917877,
                    0.030076462775468826
                ],
                [
                    -0.042104702442884445,
                    0.16018621623516083,
                    0.08586602658033371
                ]
            ],
            [
                [
                    -0.060020118951797485,
                    0.06269139051437378,
                    -0.1287599354982376
                ],
                [
                    -0.0012770917965099216,
                    0.17316032946109772,
                    0.03623808175325394
                ],
                [
                    -0.04012887924909592,
                    0.23512274026870728,
                    0.08655185252428055
                ]
            ],
            [
                [
                    -0.19940100610256195,
                    -0.15458180010318756,
                    0.0003708366712089628
                ],
                [
                    -0.04324350506067276,
                    -0.25247102975845337,
                    0.03571515530347824
                ],
                [
                    -0.10153888165950775,
                    -0.1991480588912964,
                    0.025776205584406853
                ]
            ],
            [
                [
                    -0.02763843908905983,
                    -0.07188219577074051,
                    0.029501307755708694
                ],
                [
                    -0.07506293058395386,
                    -0.007345188409090042,
                    -0.06312035024166107
                ],
                [
                    0.011006670072674751,
                    0.04690251126885414,
                    0.016993289813399315
                ]
            ],
            [
                [
                    -0.008949320763349533,
                    0.061926160007715225,
                    -0.006512801628559828
                ],
                [
                    -0.03241122514009476,
                    -0.0013602124527096748,
                    -0.05255894735455513
                ],
                [
                    -0.08972528576850891,
                    0.07520173490047455,
                    -0.05635962262749672
                ]
            ],
            [
                [
                    -0.13612891733646393,
                    -0.15317663550376892,
                    -0.06434066593647003
                ],
                [
                    -0.062494032084941864,
                    -0.10688933730125427,
                    0.10066010802984238
                ],
                [
                    -0.12037083506584167,
                    -0.19878549873828888,
                    0.010248626582324505
                ]
            ],
            [
                [
                    -0.05320204421877861,
                    0.009156876243650913,
                    -0.06433991342782974
                ],
                [
                    -0.11414884030818939,
                    -0.05750512331724167,
                    0.02684144303202629
                ],
                [
                    -0.16672958433628082,
                    -0.05653053894639015,
                    0.08953932672739029
                ]
            ],
            [
                [
                    -0.08775936812162399,
                    -0.10644234716892242,
                    -0.09875653684139252
                ],
                [
                    -0.1283963918685913,
                    -0.06891970336437225,
                    0.008386224508285522
                ],
                [
                    -0.08400183171033859,
                    0.13687346875667572,
                    -0.029955275356769562
                ]
            ],
            [
                [
                    -0.11104614287614822,
                    -0.08861199766397476,
                    -0.008822417818009853
                ],
                [
                    -0.012705049477517605,
                    -0.23638686537742615,
                    0.09944266080856323
                ],
                [
                    -0.13557296991348267,
                    -0.20876964926719666,
                    0.050731558352708817
                ]
            ],
            [
                [
                    -0.07610992342233658,
                    0.015039484016597271,
                    -0.06714241206645966
                ],
                [
                    -0.07407854497432709,
                    -0.043044157326221466,
                    -0.06883303821086884
                ],
                [
                    -0.08271003514528275,
                    -0.01893233321607113,
                    0.025330347940325737
                ]
            ],
            [
                [
                    -0.04910077899694443,
                    -0.06334161013364792,
                    -0.016817236319184303
                ],
                [
                    0.006372980773448944,
                    -0.1497524231672287,
                    0.09878410398960114
                ],
                [
                    0.0775819793343544,
                    -0.10116423666477203,
                    -0.1227637454867363
                ]
            ],
            [
                [
                    -0.18247957527637482,
                    -0.1271398812532425,
                    0.011069727130234241
                ],
                [
                    -0.08284580707550049,
                    -0.0525880791246891,
                    0.08838287740945816
                ],
                [
                    -0.11804746091365814,
                    -0.10440073907375336,
                    0.11697021126747131
                ]
            ],
            [
                [
                    -0.009222091175615788,
                    -0.061110708862543106,
                    -0.05304441973567009
                ],
                [
                    0.006327199749648571,
                    -0.0892586037516594,
                    0.07971534878015518
                ],
                [
                    -0.01676774211227894,
                    0.05026432126760483,
                    -0.06374126672744751
                ]
            ],
            [
                [
                    -0.10555862635374069,
                    0.030113447457551956,
                    -0.021243656054139137
                ],
                [
                    -0.07096773386001587,
                    0.01926405355334282,
                    0.022797435522079468
                ],
                [
                    0.09414294362068176,
                    -0.0823042020201683,
                    0.10307150334119797
                ]
            ],
            [
                [
                    -0.1281900852918625,
                    -0.022588927298784256,
                    -0.0016163066029548645
                ],
                [
                    -0.14169007539749146,
                    0.08359014987945557,
                    0.024059440940618515
                ],
                [
                    -0.07731817662715912,
                    0.00020224596664775163,
                    -0.011035328730940819
                ]
            ],
            [
                [
                    -0.20401206612586975,
                    -0.22351054847240448,
                    -0.032371677458286285
                ],
                [
                    -0.1175830289721489,
                    -0.11519066244363785,
                    0.017152072861790657
                ],
                [
                    -0.025448976084589958,
                    -0.01749040186405182,
                    0.08282262831926346
                ]
            ],
            [
                [
                    -0.012447668239474297,
                    -0.09159218519926071,
                    -0.048139382153749466
                ],
                [
                    0.0010730441426858306,
                    -0.0398109145462513,
                    -0.010594595223665237
                ],
                [
                    -0.07426756620407104,
                    -0.08421658724546432,
                    0.05303710326552391
                ]
            ],
            [
                [
                    -0.06005849689245224,
                    -0.3519169092178345,
                    0.0766792967915535
                ],
                [
                    -0.09418769180774689,
                    -0.019766923040151596,
                    -0.09724403917789459
                ],
                [
                    -0.06372661888599396,
                    0.42104461789131165,
                    0.02295014262199402
                ]
            ]
        ],
        [
            [
                [
                    -0.09787102043628693,
                    0.10317078232765198,
                    -0.01779586635529995
                ],
                [
                    -0.06571310013532639,
                    0.1039779782295227,
                    0.013269527815282345
                ],
                [
                    -0.00392576539888978,
                    0.019178345799446106,
                    -0.07166675478219986
                ]
            ],
            [
                [
                    -0.05267452076077461,
                    0.17942632734775543,
                    -0.09678976982831955
                ],
                [
                    0.02306518889963627,
                    0.10795509070158005,
                    -0.04451020807027817
                ],
                [
                    -0.0032494142651557922,
                    -0.01953905075788498,
                    -0.09208229929208755
                ]
            ],
            [
                [
                    -0.13754940032958984,
                    0.10244418680667877,
                    -0.0895569920539856
                ],
                [
                    -0.0848589539527893,
                    0.1672058403491974,
                    -0.0758843645453453
                ],
                [
                    -0.14787660539150238,
                    0.08752761036157608,
                    -0.14923492074012756
                ]
            ],
            [
                [
                    -0.0641121119260788,
                    0.08496569097042084,
                    -0.09570179134607315
                ],
                [
                    0.01914171501994133,
                    -0.1267004907131195,
                    -0.05824222043156624
                ],
                [
                    0.058065153658390045,
                    -0.14075535535812378,
                    0.01312388014048338
                ]
            ],
            [
                [
                    -0.03933778405189514,
                    0.050332289189100266,
                    -0.08335881680250168
                ],
                [
                    -0.009519591927528381,
                    0.010881779715418816,
                    0.016542548313736916
                ],
                [
                    -0.0037633110769093037,
                    -0.13116227090358734,
                    0.09153740853071213
                ]
            ],
            [
                [
                    -0.0037481426261365414,
                    0.08548440039157867,
                    -0.036118458956480026
                ],
                [
                    -0.01792813464999199,
                    0.17989017069339752,
                    -0.014147492125630379
                ],
                [
                    0.004464608617126942,
                    0.10939712822437286,
                    -0.07530340552330017
                ]
            ],
            [
                [
                    -0.023346083238720894,
                    -0.012999138794839382,
                    -0.026141192764043808
                ],
                [
                    -0.06248825788497925,
                    -0.10392957180738449,
                    0.03381684422492981
                ],
                [
                    -0.022604985162615776,
                    -0.11848950386047363,
                    0.06317471712827682
                ]
            ],
            [
                [
                    -0.057854264974594116,
                    0.010083665139973164,
                    0.09378066658973694
                ],
                [
                    -0.1146974116563797,
                    0.0721641257405281,
                    0.08384261280298233
                ],
                [
                    -0.12303869426250458,
                    0.024253737181425095,
                    0.02862362004816532
                ]
            ],
            [
                [
                    -0.0402928851544857,
                    -0.018394343554973602,
                    0.03318847715854645
                ],
                [
                    -0.1103782057762146,
                    0.07387937605381012,
                    0.0871553122997284
                ],
                [
                    -0.05358961224555969,
                    -0.03685189411044121,
                    0.02827090211212635
                ]
            ],
            [
                [
                    -0.09480951726436615,
                    -0.1949591487646103,
                    -0.03401841223239899
                ],
                [
                    -0.0005093326326459646,
                    -0.05132608115673065,
                    0.10083416849374771
                ],
                [
